0:[bedrooms<2] yes=1,no=2,missing=2,gain=384.670349,cover=2274.44189
	1:[similarity_score<0.66900003] yes=3,no=4,missing=4,gain=7.97210693,cover=469.926971
		3:[days_until_stay<19] yes=7,no=8,missing=8,gain=3.83209229,cover=416.418976
7:[location_city_Seattle] yes=15,no=16,gain=2.8789978,cover=317.287994
				15:[reviews<109] yes=27,no=28,missing=28,gain=0.329096317,cover=22.8069992
					27:leaf=-0.0287112091,cover=19.8099995
					28:[reviews<333] yes=45,no=46,missing=46,gain=0.23309879,cover=2.99699998
						45:leaf=0.00402220758,cover=1.75499988
						46:leaf=-0.0185409356,cover=1.24199998
				16:[reviews<20] yes=29,no=30,missing=30,gain=0.234802246,cover=294.480988
					29:leaf=-0.0492011867,cover=177.969986
					30:[days_until_stay<11] yes=47,no=48,missing=48,gain=0.07862854,cover=116.510994
						47:leaf=-0.0461648479,cover=66.6699982
						48:leaf=-0.0378125086,cover=49.8409996
			8:[reviews<32] yes=17,no=18,missing=18,gain=3.08407974,cover=99.1309967
				17:[similarity_score<0.55400002] yes=31,no=32,missing=32,gain=1.17539597,cover=59.5259972
					31:leaf=-0.00610697782,cover=2.74500012
32:[location_city_Belltown] yes=49,no=50,gain=0.307319641,cover=56.7809982
						49:leaf=-0.0431814231,cover=53.6759987
						50:leaf=-0.0175366644,cover=3.10500002
				18:[similarity_score<0.57099998] yes=33,no=34,missing=34,gain=2.69720936,cover=39.6049995
					33:[days_until_stay<25] yes=51,no=52,missing=52,gain=0.160280108,cover=28.3499985
						51:leaf=-0.0168857947,cover=12.473999
						52:leaf=-0.00829930138,cover=15.8759995
					34:[baths<1.5] yes=53,no=54,missing=54,gain=0.0295209885,cover=11.2550001
						53:leaf=-0.0433077626,cover=10.0050001
						54:leaf=-0.0135295261,cover=1.25
		4:[days_until_stay<19] yes=9,no=10,missing=10,gain=0.923350334,cover=53.5079994
			9:leaf=-0.0272137765,cover=30.8699989
			10:[days_until_stay<25] yes=19,no=20,missing=20,gain=0.130002379,cover=22.6380005
				19:leaf=-0.0158564579,cover=14.4060001
				20:leaf=-0.00668319082,cover=8.23200035
	2:[bedrooms<4] yes=5,no=6,missing=6,gain=62.4615021,cover=1804.51501
5:[location_city_Foster City] yes=11,no=12,gain=3.55174828,cover=523.838989
11:[location_city_Town Center Mountlake Terrace] yes=21,no=22,gain=3.68578291,cover=506.688995
21:[location_city_San Jose] yes=35,no=36,gain=3.4685638,cover=464.652985
35:[location_city_Edmonds] yes=55,no=56,gain=3.49406242,cover=410.221008
						55:leaf=0.00103236898,cover=373.243011
						56:leaf=-0.0148846675,cover=36.9779968
					36:[similarity_score<0.564999998] yes=57,no=58,missing=58,gain=0.0931634903,cover=54.4319992
						57:leaf=-0.00725971768,cover=7.9920001
						58:leaf=-0.0147043038,cover=46.4399986
				22:[similarity_score<0.549000025] yes=37,no=38,missing=38,gain=0.0395550728,cover=42.0359993
					37:leaf=-0.00625606626,cover=2.19199991
					38:leaf=-0.0177662931,cover=39.843998
			12:leaf=-0.0258552916,cover=17.1499996
		6:[similarity_score<0.546999991] yes=13,no=14,missing=14,gain=37.6050262,cover=1280.67603
			13:[similarity_score<0.545000017] yes=23,no=24,missing=24,gain=1.04218292,cover=294.368011
23:[location_city_Hanford] yes=39,no=40,gain=0.126317978,cover=41.0830002
39:[location_city_Sammamish] yes=59,no=60,gain=0.0437459946,cover=39.7120018
						59:leaf=0.0241990816,cover=38.6380005
						60:leaf=0.00583148701,cover=1.074
					40:leaf=0.00440991437,cover=1.37100005
				24:[tenure_runs<5] yes=41,no=42,missing=42,gain=1.38816833,cover=253.285004
					41:leaf=0.0432461426,cover=37.6689987
					42:[tenure_runs<7] yes=61,no=62,missing=62,gain=0.577766418,cover=215.615997
						61:leaf=0.0239134543,cover=36.0359993
						62:leaf=0.0328017399,cover=179.580002
14:[location_city_Exeter] yes=25,no=26,gain=10.2109299,cover=986.307983
25:[location_city_Three Rivers] yes=43,no=44,gain=9.38124847,cover=971.565979
					43:[reviews<26] yes=63,no=64,missing=64,gain=6.58791351,cover=945.483948
						63:leaf=0.00779693061,cover=536.454956
						64:leaf=0.0162453577,cover=409.028992
					44:[tenure_runs<3] yes=65,no=66,missing=66,gain=0.441772461,cover=26.0819988
						65:leaf=0.0247257818,cover=7.37099981
						66:leaf=0.0463910103,cover=18.7109985
				26:leaf=-0.0283911824,cover=14.7419996


0:[bedrooms<2] yes=1,no=2,missing=2,gain=340.730316,cover=2264.50098
	1:[accommodates<3] yes=3,no=4,missing=4,gain=11.9114075,cover=461.988983
3:[location_city_Seattle] yes=7,no=8,gain=2.04351807,cover=286.075989
			7:[rating<5] yes=15,no=16,missing=16,gain=0.235686302,cover=26.5109997
				15:[is_weekend<1] yes=31,no=32,missing=32,gain=0.0384883881,cover=21.3719997
31:[location_city_Fremont] yes=57,no=58,gain=0.0333795547,cover=15.9749994
						57:leaf=-0.0364891104,cover=13.7069998
						58:leaf=-0.0152139207,cover=2.26799989
					32:leaf=-0.019424092,cover=5.39699984
				16:[similarity_score<0.55400002] yes=33,no=34,missing=34,gain=0.0661726594,cover=5.13899994
					33:leaf=-0.00483568618,cover=2.1960001
					34:leaf=-0.0189296324,cover=2.94299984
			8:[rating<4.88000011] yes=17,no=18,missing=18,gain=1.14509583,cover=259.565002
17:[lead_time_bucket_days_15_30] yes=35,no=36,gain=0.307491302,cover=66.2579956
					35:leaf=-0.0411565714,cover=49.9499969
					36:[price_reliability_score<0.714285731] yes=59,no=60,missing=60,gain=0.0898909569,cover=16.3079987
						59:leaf=-0.0309510417,cover=12.3389997
						60:leaf=-0.0145972669,cover=3.96899986
				18:leaf=-0.0483663343,cover=193.306992
4:[lead_time_bucket_days_15_30] yes=9,no=10,gain=5.29766846,cover=175.912994
9:[location_city_Seattle] yes=19,no=20,gain=1.09347153,cover=86.7080002
				19:[similarity_score<0.57099998] yes=37,no=38,missing=38,gain=0.086961031,cover=9.56400013
					37:leaf=-0.00420764508,cover=1.70099998
					38:leaf=-0.0197975468,cover=7.86299992
				20:[similarity_score<0.625] yes=39,no=40,missing=40,gain=0.474845886,cover=77.1439972
					39:leaf=-0.040825177,cover=63.423996
					40:leaf=-0.0259424839,cover=13.7199993
10:[day_of_month_bucket_week_4] yes=21,no=22,gain=1.01415825,cover=89.2049942
				21:[price_reliability_score<0.857142866] yes=41,no=42,missing=42,gain=0.062748909,cover=61.5389977
					41:leaf=-0.0285817962,cover=11.0269995
42:[day_of_month_bucket_month_end] yes=61,no=62,gain=0.299860954,cover=50.5119972
						61:leaf=-0.0215825792,cover=46.4239998
						62:leaf=-0.00569944736,cover=4.08799982
				22:[price_reliability_score<0.857142866] yes=43,no=44,missing=44,gain=0.114008188,cover=27.6659985
					43:leaf=-0.0201078672,cover=2.27699995
					44:leaf=-0.00860208459,cover=25.3889999
	2:[bedrooms<4] yes=5,no=6,missing=6,gain=59.238945,cover=1802.51196
		5:[similarity_score<0.808000028] yes=11,no=12,missing=12,gain=3.46991658,cover=529.542969
			11:[price_reliability_score<1] yes=23,no=24,missing=24,gain=4.16321754,cover=467.802979
23:[location_city_Foster City] yes=45,no=46,gain=3.13904667,cover=371.852997
45:[location_city_San Jose] yes=63,no=64,gain=2.84413266,cover=355.389008
						63:leaf=-0.000313767669,cover=304.48999
						64:leaf=-0.0129780164,cover=50.8989983
					46:leaf=-0.0238841157,cover=16.4640007
				24:[accommodates<7] yes=47,no=48,missing=48,gain=0.554004669,cover=95.9499969
47:[location_city_Town Center Mountlake Terrace] yes=65,no=66,gain=0.365198612,cover=82.3420029
						65:leaf=-0.00971756782,cover=46.9910011
						66:leaf=-0.0169422422,cover=35.3509979
					48:leaf=-0.0243407004,cover=13.6079998
			12:[price_reliability_score<0.714285731] yes=25,no=26,missing=26,gain=0.0475190878,cover=61.7400017
25:[location_city_Menlo Park] yes=49,no=50,gain=0.0257475972,cover=30.3800011
					49:leaf=0.00573409628,cover=26.460001
					50:leaf=0.00107834325,cover=3.92000008
26:[day_of_month_bucket_month_end] yes=51,no=52,gain=0.00684189796,cover=31.3600006
					51:leaf=0.00866436865,cover=29.4000015
					52:leaf=0.00302398624,cover=1.96000004
		6:[similarity_score<0.546999991] yes=13,no=14,missing=14,gain=32.4517593,cover=1272.96899
			13:[rating<2.5] yes=27,no=28,missing=28,gain=6.45291901,cover=302.753998
				27:leaf=0.0457417406,cover=54.7319984
				28:[tenure_runs<9] yes=53,no=54,missing=54,gain=1.28936005,cover=248.022003
53:[location_city_Hanford] yes=67,no=68,gain=0.227278709,cover=88.1019974
						67:leaf=0.021354124,cover=86.1940002
						68:leaf=0.00247173151,cover=1.90799999
					54:[rating<4.98000002] yes=69,no=70,missing=70,gain=0.808444977,cover=159.919998
						69:leaf=0.0322219245,cover=102.590004
						70:leaf=0.023450708,cover=57.3300018
14:[location_city_Exeter] yes=29,no=30,gain=8.19976807,cover=970.214966
				29:[is_weekend<1] yes=55,no=56,missing=56,gain=7.85224915,cover=957.17395
					55:[rating<4.76999998] yes=71,no=72,missing=72,gain=6.37237358,cover=679.378967
						71:leaf=-0.000438033283,cover=143.661987
						72:leaf=0.0114153782,cover=535.71698
					56:[accommodates<14] yes=73,no=74,missing=74,gain=2.49333191,cover=277.794983
						73:leaf=0.0148216253,cover=164.89299
						74:leaf=0.0246996861,cover=112.902
				30:leaf=-0.0267772805,cover=13.0409994


0:[bedrooms<2] yes=1,no=2,missing=2,gain=309.595734,cover=2286.16406
	1:[accommodates<3] yes=3,no=4,missing=4,gain=11.8693848,cover=467.223999
3:[location_city_Seattle] yes=7,no=8,gain=1.80705261,cover=287.574982
			7:[is_weekend<1] yes=15,no=16,missing=16,gain=0.417313576,cover=26.5809994
				15:[rating<5] yes=29,no=30,missing=30,gain=0.228440285,cover=19.6630001
29:[day_of_month_bucket_week_3] yes=53,no=54,gain=0.0207548141,cover=16.2449989
						53:leaf=-0.0359611101,cover=15.0029993
						54:leaf=-0.0112693552,cover=1.24199998
					30:[similarity_score<0.55400002] yes=55,no=56,missing=56,gain=0.00385969877,cover=3.41799998
						55:leaf=-0.00432707835,cover=1.09800005
						56:leaf=-0.0156877339,cover=2.31999993
				16:[days_until_stay<26] yes=31,no=32,missing=32,gain=0.0201041698,cover=6.91800022
					31:leaf=-0.0164806191,cover=4.72200012
					32:leaf=-0.005862155,cover=2.1960001
			8:[rating<4.88000011] yes=17,no=18,missing=18,gain=1.09681702,cover=260.993988
				17:[days_until_stay<17] yes=33,no=34,missing=34,gain=0.284313202,cover=61.6679955
					33:leaf=-0.0383775979,cover=51.2459984
					34:[price_reliability_score<0.714285731] yes=57,no=58,missing=58,gain=0.0954222679,cover=10.4219999
						57:leaf=-0.0264883041,cover=8.15399933
						58:leaf=-0.00876347069,cover=2.26799989
				18:leaf=-0.046215456,cover=199.325989
		4:[days_until_stay<17] yes=9,no=10,missing=10,gain=5.88718796,cover=179.648987
9:[location_city_San Francisco] yes=19,no=20,gain=1.13527679,cover=107.873993
				19:[days_until_stay<11] yes=35,no=36,missing=36,gain=0.728420258,cover=97.2719955
					35:leaf=-0.0404433757,cover=47.1119995
					36:leaf=-0.029370565,cover=50.1599998
				20:[price_reliability_score<0.285714298] yes=37,no=38,missing=38,gain=0.175681353,cover=10.6019993
					37:[similarity_score<0.57099998] yes=59,no=60,missing=60,gain=0.121360973,cover=2.37599993
						59:leaf=0.00676466525,cover=1.13399994
						60:leaf=-0.0100126062,cover=1.24199998
					38:leaf=-0.0187570136,cover=8.22599983
			10:[days_until_stay<25] yes=21,no=22,missing=22,gain=0.523118019,cover=71.7749939
				21:[days_until_stay<19] yes=39,no=40,missing=40,gain=0.00294351578,cover=42.060997
					39:leaf=-0.0214156508,cover=14.9169998
					40:leaf=-0.0157134011,cover=27.1439991
				22:[price_reliability_score<0.857142866] yes=41,no=42,missing=42,gain=0.427564085,cover=29.7139988
					41:leaf=-0.0248557702,cover=2.86199999
					42:leaf=-0.00646497309,cover=26.8519993
	2:[bedrooms<4] yes=5,no=6,missing=6,gain=50.6833916,cover=1818.93994
5:[location_city_Foster City] yes=11,no=12,gain=3.21224141,cover=531.274963
11:[location_city_Town Center Mountlake Terrace] yes=23,no=24,gain=2.91979599,cover=512.752991
23:[location_city_Edmonds] yes=43,no=44,gain=2.93033266,cover=471.445984
					43:[similarity_score<0.808000028] yes=61,no=62,missing=62,gain=1.38628805,cover=429.938995
						61:leaf=-0.00166825112,cover=374.07901
						62:leaf=0.00671018986,cover=55.8600006
					44:[rating<4.73000002] yes=63,no=64,missing=64,gain=1.37612963,cover=41.507
						63:leaf=-0.0232933387,cover=20.4119987
						64:leaf=-0.00499501405,cover=21.0949993
				24:[similarity_score<0.549000025] yes=45,no=46,missing=46,gain=0.0437307358,cover=41.3069992
					45:leaf=-0.00665501971,cover=3.28799987
					46:leaf=-0.0161019545,cover=38.019001
			12:leaf=-0.0236208122,cover=18.5219994
		6:[similarity_score<0.546999991] yes=13,no=14,missing=14,gain=28.1885834,cover=1287.66492
			13:[rating<2.5] yes=25,no=26,missing=26,gain=5.32663727,cover=295.57901
				25:leaf=0.0433303155,cover=49.4140015
				26:[tenure_runs<9] yes=47,no=48,missing=48,gain=1.10746002,cover=246.165009
47:[location_city_Hanford] yes=65,no=66,gain=0.0783863068,cover=90.6119995
						65:leaf=0.0202366654,cover=89.2409973
						66:leaf=0.00421095127,cover=1.37100005
					48:[rating<4.98000002] yes=67,no=68,missing=68,gain=0.695266724,cover=155.553009
						67:leaf=0.0305802822,cover=98.2229996
						68:leaf=0.0223296043,cover=57.3300018
			14:[is_weekend<1] yes=27,no=28,missing=28,gain=8.38544464,cover=992.085999
				27:[baths<3.5] yes=49,no=50,missing=50,gain=6.32671547,cover=711.222961
					49:[rating<4.76999998] yes=69,no=70,missing=70,gain=5.18291092,cover=675.060974
						69:leaf=-0.00155795028,cover=151.983994
						70:leaf=0.00891983882,cover=523.076965
					50:leaf=0.0277913753,cover=36.1619987
				28:[days_since_first_seen<3] yes=51,no=52,missing=52,gain=2.92076111,cover=280.863007
					51:[accommodates<13] yes=71,no=72,missing=72,gain=2.59099388,cover=167.925995
						71:leaf=0.00930981431,cover=116.550995
						72:leaf=0.022868216,cover=51.375
					52:[rating<4.98999977] yes=73,no=74,missing=74,gain=1.41052628,cover=112.936996
						73:leaf=0.0218479559,cover=101.370995
						74:leaf=0.0409982502,cover=11.566


0:[bedrooms<2] yes=1,no=2,missing=2,gain=280.940155,cover=2299.84106
	1:[effective_rank_score<0.66900003] yes=3,no=4,missing=4,gain=5.99006653,cover=461.940979
		3:[rating<4.86000013] yes=7,no=8,missing=8,gain=4.72190857,cover=411.176971
			7:[days_until_stay<17] yes=15,no=16,missing=16,gain=4.67023468,cover=154.787994
				15:[days_until_stay<11] yes=29,no=30,missing=30,gain=0.113571167,cover=109.103996
					29:[rating<4.84000015] yes=49,no=50,missing=50,gain=0.0849761963,cover=74.4689941
						49:leaf=-0.0375014991,cover=72.7319946
						50:leaf=-0.0130964248,cover=1.73699999
					30:leaf=-0.0292632133,cover=34.6349983
				16:[days_until_stay<27] yes=31,no=32,missing=32,gain=0.482509136,cover=45.6839981
					31:[tenure_runs<9] yes=51,no=52,missing=52,gain=0.0352349281,cover=34.343998
						51:leaf=-0.022911083,cover=9.96299934
						52:leaf=-0.0155647462,cover=24.3809986
					32:leaf=-0.00574817182,cover=11.3399992
8:[location_city_Seattle] yes=17,no=18,gain=4.44120789,cover=256.388977
				17:[effective_rank_score<0.57099998] yes=33,no=34,missing=34,gain=0.540554523,cover=26.4309998
					33:[reviews<161] yes=53,no=54,missing=54,gain=0.271321058,cover=14.632
						53:leaf=-0.0144880209,cover=13.4979992
						54:leaf=0.00658492325,cover=1.13399994
34:[location_city_San Francisco] yes=55,no=56,gain=0.014380455,cover=11.7989998
						55:leaf=-0.0322390087,cover=7.45199966
						56:leaf=-0.0168117043,cover=4.34700012
				18:leaf=-0.0431774445,cover=229.957993
		4:[days_until_stay<19] yes=9,no=10,missing=10,gain=0.672721863,cover=50.7639999
			9:leaf=-0.0232107919,cover=27.4399986
			10:[days_until_stay<25] yes=19,no=20,missing=20,gain=0.0970662832,cover=23.3239994
				19:leaf=-0.0134557905,cover=14.4060001
				20:leaf=-0.0057715117,cover=8.91800022
	2:[bedrooms<4] yes=5,no=6,missing=6,gain=46.7259636,cover=1837.90002
5:[location_city_Redwood City] yes=11,no=12,gain=5.14546299,cover=535.06897
			11:[rating<4.92999983] yes=21,no=22,missing=22,gain=2.35166502,cover=418.561005
				21:[price_reliability_score<0.714285731] yes=35,no=36,missing=36,gain=1.96604252,cover=266.026001
35:[location_city_Foster City] yes=57,no=58,gain=2.39399529,cover=155.085999
						57:leaf=-0.00286306045,cover=137.25
						58:leaf=-0.0219061952,cover=17.8360004
36:[location_city_San Carlos] yes=59,no=60,gain=0.684803009,cover=110.939995
						59:leaf=-0.0154441176,cover=96.4710007
						60:leaf=-0.00350061548,cover=14.4689999
				22:[rating<4.96000004] yes=37,no=38,missing=38,gain=0.928360403,cover=152.535004
					37:[days_until_stay<20] yes=61,no=62,missing=62,gain=0.583781958,cover=47.697998
						61:leaf=0.00628165528,cover=44.1539993
						62:leaf=-0.0126556745,cover=3.54400015
					38:[is_weekend<1] yes=63,no=64,missing=64,gain=0.20301348,cover=104.836998
						63:leaf=-0.00533164619,cover=67.0940018
						64:leaf=-0.000737871102,cover=37.743
			12:[bedrooms<3] yes=23,no=24,missing=24,gain=0.213921785,cover=116.508003
				23:[rating<4.88999987] yes=39,no=40,missing=40,gain=0.172643036,cover=67.6640015
					39:[effective_rank_score<0.57099998] yes=65,no=66,missing=66,gain=0.0479294322,cover=14.0999994
						65:leaf=0.000711880333,cover=10.8899994
						66:leaf=-0.00551933423,cover=3.21000004
					40:[effective_rank_score<0.42899999] yes=67,no=68,missing=68,gain=0.150633991,cover=53.5639992
						67:leaf=-0.00603156863,cover=2.08500004
						68:leaf=0.00572601194,cover=51.4790001
				24:[rating<4.76999998] yes=41,no=42,missing=42,gain=0.244039774,cover=48.8440018
					41:[rating<4.42000008] yes=69,no=70,missing=70,gain=0.29864347,cover=17.3640003
						69:leaf=0.00860106852,cover=9.97500038
						70:leaf=-0.00401661545,cover=7.38899994
					42:[rating<4.80999994] yes=71,no=72,missing=72,gain=0.0449986458,cover=31.4799995
						71:leaf=0.0157051459,cover=5.89599991
						72:leaf=0.00925331656,cover=25.5839996
		6:[effective_rank_score<0.546999991] yes=13,no=14,missing=14,gain=29.144104,cover=1302.83093
			13:[rating<2.5] yes=25,no=26,missing=26,gain=5.74315643,cover=300.787018
				25:leaf=0.0417593084,cover=59.5789986
				26:[tenure_runs<9] yes=43,no=44,missing=44,gain=0.793563843,cover=241.208008
					43:[rating<4.96000004] yes=73,no=74,missing=74,gain=0.088385582,cover=85.6549988
						73:leaf=0.0172716808,cover=51.6669998
						74:leaf=0.0226228219,cover=33.987999
					44:[rating<4.98000002] yes=75,no=76,missing=76,gain=0.64422226,cover=155.553009
						75:leaf=0.0291078966,cover=99.8610001
						76:leaf=0.0211409833,cover=55.6920013
14:[location_city_Three Rivers] yes=27,no=28,gain=8.18951416,cover=1002.04395
27:[location_city_Exeter] yes=45,no=46,gain=5.86614609,cover=977.095947
					45:[is_weekend<1] yes=77,no=78,missing=78,gain=5.65283585,cover=966.322998
						77:leaf=0.00720939925,cover=690.460999
						78:leaf=0.015691841,cover=275.862
					46:leaf=-0.0259664413,cover=10.7729998
				28:[rating<4.98999977] yes=47,no=48,missing=48,gain=0.445620537,cover=24.947998
					47:leaf=0.0196047463,cover=5.6699996
					48:leaf=0.0418628789,cover=19.2779999


0:[bedrooms<2] yes=1,no=2,missing=2,gain=255.040039,cover=2287.86597
	1:[accommodates<3] yes=3,no=4,missing=4,gain=9.60900879,cover=471.267975
3:[location_city_Redwood City] yes=7,no=8,gain=1.26756287,cover=287.626984
			7:[rating<4.88000011] yes=15,no=16,missing=16,gain=0.887481689,cover=284.332977
15:[day_of_month_bucket_week_3] yes=31,no=32,gain=0.147724152,cover=78.1800003
					31:[is_weekend<1] yes=55,no=56,missing=56,gain=0.127456665,cover=69.4049988
						55:leaf=-0.0367843397,cover=46.5389977
						56:leaf=-0.0271915495,cover=22.8659992
					32:leaf=-0.0211141594,cover=8.77499962
16:[location_city_Fremont] yes=33,no=34,gain=0.282119751,cover=206.153
					33:[baths<1.5] yes=57,no=58,missing=58,gain=0.235656738,cover=204.451996
						57:leaf=-0.0412890576,cover=203.201996
						58:leaf=-0.00932705402,cover=1.25
					34:leaf=-0.0112984283,cover=1.70099998
			8:[price_reliability_score<0.285714298] yes=17,no=18,missing=18,gain=0.000303141773,cover=3.29400015
				17:leaf=-0.00236731209,cover=1.64700007
				18:leaf=-0.00690590544,cover=1.64700007
		4:[days_until_stay<18] yes=9,no=10,missing=10,gain=4.6244278,cover=183.640991
			9:[days_until_stay<10] yes=19,no=20,missing=20,gain=1.02762222,cover=117.628998
19:[location_city_San Francisco] yes=35,no=36,gain=0.029838562,cover=44.947998
					35:leaf=-0.0364585333,cover=43.7899971
					36:leaf=-0.0108839599,cover=1.15799999
20:[location_city_San Francisco] yes=37,no=38,gain=0.213796616,cover=72.6809998
					37:leaf=-0.0261846762,cover=64.3709946
					38:[pool_score<0.57099998] yes=59,no=60,missing=60,gain=0.172683537,cover=8.30999947
						59:leaf=-0.00155649066,cover=2.26799989
						60:leaf=-0.0181703474,cover=6.04199982
			10:[days_until_stay<25] yes=21,no=22,missing=22,gain=0.299472809,cover=66.012001
				21:leaf=-0.0157997385,cover=36.5359993
				22:[price_reliability_score<0.857142866] yes=39,no=40,missing=40,gain=0.409458101,cover=29.4759979
					39:leaf=-0.0227470975,cover=3.4289999
					40:leaf=-0.00580145139,cover=26.046999
	2:[bedrooms<4] yes=5,no=6,missing=6,gain=42.9025612,cover=1816.59802
5:[location_city_Redwood City] yes=11,no=12,gain=5.35850668,cover=531.804993
11:[location_city_Menlo Park] yes=23,no=24,gain=3.24368715,cover=411.904999
				23:[pool_score<0.63499999] yes=41,no=42,missing=42,gain=2.37588406,cover=376.377991
41:[location_city_Edmonds] yes=61,no=62,gain=1.58196115,cover=281.570007
						61:leaf=-0.00359361921,cover=240.62999
						62:leaf=-0.0141488453,cover=40.9399986
42:[location_city_Foster City] yes=63,no=64,gain=0.349403381,cover=94.8079987
						63:leaf=-0.0125774024,cover=77.6579971
						64:leaf=-0.0211218763,cover=17.1499996
24:[month_apr] yes=43,no=44,gain=0.0971390605,cover=35.5270004
					43:[rating<4.94000006] yes=65,no=66,missing=66,gain=0.00423653051,cover=7.73500013
						65:leaf=0.00431064423,cover=2.26799989
						66:leaf=0.00149394793,cover=5.46700001
					44:[baths<1] yes=67,no=68,missing=68,gain=0.0108543634,cover=27.7919998
						67:leaf=0.00551423198,cover=5.63699961
						68:leaf=0.010218448,cover=22.1550007
			12:[bedrooms<3] yes=25,no=26,missing=26,gain=0.280993104,cover=119.900002
				25:[pool_score<0.698000014] yes=45,no=46,missing=46,gain=0.155824691,cover=70.112999
					45:[days_since_first_seen<1] yes=69,no=70,missing=70,gain=0.0788834989,cover=24.0529995
						69:leaf=-0.00224425225,cover=12.566
						70:leaf=0.00326530705,cover=11.4869995
					46:leaf=0.00537764002,cover=46.0600014
				26:[rating<4.76999998] yes=47,no=48,missing=48,gain=0.299993277,cover=49.7869987
					47:[rating<4.42000008] yes=71,no=72,missing=72,gain=0.231905282,cover=14.2060003
						71:leaf=0.00810106844,cover=7.23400021
						72:leaf=-0.00391549058,cover=6.97200012
					48:[rating<4.96999979] yes=73,no=74,missing=74,gain=0.0501321554,cover=35.5810013
						73:leaf=0.0139103783,cover=14.1190004
						74:leaf=0.00870234147,cover=21.4619999
		6:[pool_score<0.546999991] yes=13,no=14,missing=14,gain=23.6149902,cover=1284.79297
			13:[rating<2.5] yes=27,no=28,missing=28,gain=4.66728973,cover=298.893005
				27:leaf=0.0393440649,cover=52.9519997
				28:[tenure_runs<9] yes=49,no=50,missing=50,gain=0.832168579,cover=245.94101
					49:[rating<4.96000004] yes=75,no=76,missing=76,gain=0.206663132,cover=89.2900009
						75:leaf=0.0157235842,cover=55.8759995
						76:leaf=0.0220113136,cover=33.4140015
					50:[rating<4.98000002] yes=77,no=78,missing=78,gain=0.550827026,cover=156.651001
						77:leaf=0.0276225004,cover=97.6829987
						78:leaf=0.0203023087,cover=58.9680023
			14:[is_weekend<1] yes=29,no=30,missing=30,gain=6.71342468,cover=985.899963
				29:[rating<4.76999998] yes=51,no=52,missing=52,gain=5.82949924,cover=697.11499
					51:[price_reliability_score<0.428571433] yes=79,no=80,missing=80,gain=6.21990681,cover=147.929993
						79:leaf=0.0273924209,cover=15.2979994
						80:leaf=-0.00532868225,cover=132.631989
					52:[accommodates<14] yes=81,no=82,missing=82,gain=7.2791996,cover=549.184998
						81:leaf=0.00447411276,cover=319.037994
						82:leaf=0.0161465742,cover=230.147003
				30:[rating<4.98999977] yes=53,no=54,missing=54,gain=2.66187096,cover=288.785004
					53:[baths<3] yes=83,no=84,missing=84,gain=2.35983276,cover=258.462982
						83:leaf=0.00970639382,cover=136.328995
						84:leaf=0.0194032546,cover=122.133995
					54:[price_reliability_score<1] yes=85,no=86,missing=86,gain=1.77071381,cover=30.3219986
						85:leaf=0.033917021,cover=27.3789997
						86:leaf=-0.00522160484,cover=2.94299984


0:[bedrooms<2] yes=1,no=2,missing=2,gain=227.090668,cover=2289.99097
	1:[accommodates<3] yes=3,no=4,missing=4,gain=7.58720398,cover=467.248993
3:[location_city_Seattle] yes=7,no=8,gain=1.27218628,cover=286.841003
			7:[rating<4.92999983] yes=15,no=16,missing=16,gain=0.277569294,cover=23.4939995
				15:leaf=-0.0291637313,cover=11.9219999
				16:[days_until_stay<29] yes=31,no=32,missing=32,gain=0.0596907139,cover=11.5719995
					31:leaf=-0.0171175748,cover=9.37599945
					32:leaf=-0.00484890258,cover=2.1960001
			8:[rating<4.84000015] yes=17,no=18,missing=18,gain=0.607116699,cover=263.346985
				17:[days_until_stay<17] yes=33,no=34,missing=34,gain=0.518472672,cover=56.6999969
					33:leaf=-0.0330974609,cover=48.7619972
					34:[days_until_stay<27] yes=59,no=60,missing=60,gain=0.0988769531,cover=7.93799973
						59:leaf=-0.0179124884,cover=6.8039999
						60:leaf=-0.00108474807,cover=1.13399994
				18:[similarity_score<0.617999971] yes=35,no=36,missing=36,gain=0.0897445679,cover=206.646988
					35:leaf=-0.0405122265,cover=155.891998
					36:[rating<4.96000004] yes=61,no=62,missing=62,gain=0.687927246,cover=50.7550011
						61:leaf=-0.0368016325,cover=41.4360008
						62:leaf=-0.0182974804,cover=9.31900024
		4:[days_until_stay<19] yes=9,no=10,missing=10,gain=4.1425209,cover=180.40799
			9:[days_until_stay<10] yes=19,no=20,missing=20,gain=1.03607559,cover=123.487
19:[location_city_San Francisco] yes=37,no=38,gain=0.0191631317,cover=47.2099991
					37:leaf=-0.0348177068,cover=46.0519981
					38:leaf=-0.0105919428,cover=1.15799999
20:[location_city_San Francisco] yes=39,no=40,gain=0.117296219,cover=76.2770004
					39:leaf=-0.0247019362,cover=67.9789963
					40:[rating<4.92999983] yes=63,no=64,missing=64,gain=0.0269578099,cover=8.29799938
						63:leaf=-0.017120542,cover=5.24699974
						64:leaf=-0.00688768178,cover=3.05099988
			10:[price_reliability_score<0.857142866] yes=21,no=22,missing=22,gain=0.452908039,cover=56.9209976
				21:[similarity_score<0.625] yes=41,no=42,missing=42,gain=0.042773962,cover=6.61899996
					41:leaf=-0.025724221,cover=5.24699974
					42:leaf=-0.0072225593,cover=1.37199998
				22:[days_until_stay<25] yes=43,no=44,missing=44,gain=0.258629084,cover=50.3019981
					43:leaf=-0.0129982783,cover=25.9559994
					44:leaf=-0.00549262296,cover=24.3459988
	2:[bedrooms<4] yes=5,no=6,missing=6,gain=34.9035759,cover=1822.74194
5:[location_city_Redwood City] yes=11,no=12,gain=4.38453817,cover=529.723022
11:[location_city_Menlo Park] yes=23,no=24,gain=3.52711725,cover=412.497986
				23:[similarity_score<0.63499999] yes=45,no=46,missing=46,gain=2.30303431,cover=368.608002
					45:[price_reliability_score<0.714285731] yes=65,no=66,missing=66,gain=1.45807004,cover=272.622986
						65:leaf=-0.00204469054,cover=181.138992
						66:leaf=-0.00977649819,cover=91.4839935
					46:[rating<4.71000004] yes=67,no=68,missing=68,gain=0.326066017,cover=95.9850006
						67:leaf=-0.0058278949,cover=13.3800011
						68:leaf=-0.0148564382,cover=82.6050034
24:[month_apr] yes=47,no=48,gain=0.0958867073,cover=43.8899994
					47:[rating<4.94000006] yes=69,no=70,missing=70,gain=0.00268485397,cover=8.71500015
						69:leaf=0.00416106544,cover=2.26799989
						70:leaf=0.0017282808,cover=6.44700003
					48:[baths<1] yes=71,no=72,missing=72,gain=0.0256656408,cover=35.1749992
						71:leaf=0.00527785579,cover=8.02199936
						72:leaf=0.00984675344,cover=27.1529999
			12:[baths<1.5] yes=25,no=26,missing=26,gain=0.283068419,cover=117.224998
				25:[rating<4.88999987] yes=49,no=50,missing=50,gain=0.324771821,cover=84.7099991
					49:[rating<4.42000008] yes=73,no=74,missing=74,gain=0.163726479,cover=25.1429996
						73:leaf=0.00926386844,cover=2.50199986
						74:leaf=-0.00233059912,cover=22.6409988
					50:[days_until_stay<29] yes=75,no=76,missing=76,gain=0.0572153926,cover=59.5670013
						75:leaf=0.0061923326,cover=56.9189987
						76:leaf=-0.000986159663,cover=2.648
				26:[bedrooms<3] yes=51,no=52,missing=52,gain=0.218772054,cover=32.5149994
					51:leaf=-0.00459653093,cover=2.05800009
					52:[price_reliability_score<0.285714298] yes=77,no=78,missing=78,gain=0.0509874821,cover=30.4570007
						77:leaf=-0.000126891886,cover=1.07200003
						78:leaf=0.0108512389,cover=29.3850002
		6:[similarity_score<0.546999991] yes=13,no=14,missing=14,gain=22.4692917,cover=1293.01892
			13:[rating<2.5] yes=27,no=28,missing=28,gain=4.08315277,cover=285.979004
				27:leaf=0.0379483961,cover=48.3470001
				28:[tenure_runs<9] yes=53,no=54,missing=54,gain=0.494354248,cover=237.632004
53:[location_city_Hanford] yes=79,no=80,gain=0.082482338,cover=86.4449997
						79:leaf=0.0182827711,cover=85.0739975
						80:leaf=0.00313525205,cover=1.37100005
					54:[rating<4.98000002] yes=81,no=82,missing=82,gain=0.453392029,cover=151.186996
						81:leaf=0.0260305256,cover=94.9490051
						82:leaf=0.0191692058,cover=56.237999
14:[location_city_Three Rivers] yes=29,no=30,gain=6.46789742,cover=1007.03998
				29:[baths<3.5] yes=55,no=56,missing=56,gain=6.11521339,cover=981.524963
					55:[is_weekend<1] yes=83,no=84,missing=84,gain=5.4674778,cover=938.549988
						83:leaf=0.00477509527,cover=678.191956
						84:leaf=0.0133011965,cover=260.358002
					56:[accommodates<2] yes=85,no=86,missing=86,gain=0.207541466,cover=42.9749985
						85:leaf=0.00526815699,cover=1.69200003
						86:leaf=0.0269844867,cover=41.2829971
				30:[rating<4.98999977] yes=57,no=58,missing=58,gain=0.634801865,cover=25.5149994
					57:leaf=0.0163205899,cover=6.8039999
					58:leaf=0.0380624793,cover=18.7109985


0:[bedrooms<2] yes=1,no=2,missing=2,gain=207.451736,cover=2282.07397
	1:[reviews<32] yes=3,no=4,missing=4,gain=4.20217896,cover=471.248993
3:[location_city_Seattle] yes=7,no=8,gain=1.70304108,cover=256.466003
7:[location_city_Redwood City] yes=15,no=16,gain=0.375267982,cover=27.5669994
				15:[is_weekend<1] yes=31,no=32,missing=32,gain=0.0063328743,cover=23.723999
					31:leaf=-0.0252885222,cover=17.6759987
32:[location_city_San Francisco] yes=59,no=60,gain=0.0375623703,cover=6.04799986
						59:leaf=-0.0167524554,cover=4.91400003
						60:leaf=-0.00312862615,cover=1.13399994
				16:[price_reliability_score<0.285714298] yes=33,no=34,missing=34,gain=0.00164370239,cover=3.84300017
					33:leaf=-0.00226970739,cover=2.1960001
					34:leaf=-0.00641297176,cover=1.64700007
			8:[price_reliability_score<1] yes=17,no=18,missing=18,gain=0.011428833,cover=228.898987
				17:[price_reliability_score<0.857142866] yes=35,no=36,missing=36,gain=0.271820068,cover=159.724991
					35:leaf=-0.0344269536,cover=154.621994
					36:[days_until_stay<20] yes=61,no=62,missing=62,gain=0.0355664492,cover=5.10299969
						61:leaf=-0.0189022683,cover=3.96899986
						62:leaf=-0.00400802772,cover=1.13399994
				18:leaf=-0.0391243771,cover=69.173996
		4:[days_until_stay<18] yes=9,no=10,missing=10,gain=4.00971985,cover=214.78299
			9:[days_until_stay<10] yes=19,no=20,missing=20,gain=1.14188004,cover=146.972
				19:[reviews<49] yes=37,no=38,missing=38,gain=0.0143032074,cover=64.6930008
					37:leaf=-0.0138561279,cover=1.86299992
					38:leaf=-0.0348120332,cover=62.829998
20:[location_city_San Francisco] yes=39,no=40,gain=0.429704666,cover=82.2789993
					39:[pool_score<0.652999997] yes=63,no=64,missing=64,gain=0.216846466,cover=73.4020004
						63:leaf=-0.0282536037,cover=48.7059975
						64:leaf=-0.0198527426,cover=24.6959991
					40:[pool_score<0.57099998] yes=65,no=66,missing=66,gain=0.120324254,cover=8.87699986
						65:leaf=-0.00230768346,cover=2.8349998
						66:leaf=-0.0154661834,cover=6.04199982
			10:[reviews<209] yes=21,no=22,missing=22,gain=1.74968672,cover=67.810997
				21:[days_until_stay<25] yes=41,no=42,missing=42,gain=0.328706026,cover=57.2249985
					41:leaf=-0.0137680443,cover=30.0439987
					42:[price_reliability_score<0.428571433] yes=67,no=68,missing=68,gain=0.010753572,cover=27.1809998
						67:leaf=-0.0107672065,cover=1.13399994
						68:leaf=-0.00525697367,cover=26.046999
				22:leaf=-0.0319172293,cover=10.5859995
	2:[bedrooms<4] yes=5,no=6,missing=6,gain=34.1009521,cover=1810.82495
5:[location_city_Redwood City] yes=11,no=12,gain=4.39956474,cover=537.416992
11:[location_city_Menlo Park] yes=23,no=24,gain=2.95287228,cover=417.436981
				23:[pool_score<0.63499999] yes=43,no=44,missing=44,gain=2.06361341,cover=378.639008
					43:[price_reliability_score<0.714285731] yes=69,no=70,missing=70,gain=1.528687,cover=277.144989
						69:leaf=-0.00214330363,cover=191.994003
						70:leaf=-0.0101759229,cover=85.151001
					44:[reviews<57] yes=71,no=72,missing=72,gain=0.295648098,cover=101.494003
						71:leaf=-0.0147601394,cover=72.0749969
						72:leaf=-0.00826576166,cover=29.4190006
24:[month_apr] yes=45,no=46,gain=0.0434659719,cover=38.7980003
					45:[pool_score<0.57099998] yes=73,no=74,missing=74,gain=0.00143081136,cover=6.18799973
						73:leaf=0.00401668251,cover=2.26799989
						74:leaf=0.00163085002,cover=3.92000008
					46:[pool_score<0.57099998] yes=75,no=76,missing=76,gain=0.0215816498,cover=32.6100006
						75:leaf=0.00590996025,cover=14.6759996
						76:leaf=0.00963506289,cover=17.934
			12:[bedrooms<3] yes=25,no=26,missing=26,gain=0.193925261,cover=119.980003
				25:[baths<1.5] yes=47,no=48,missing=48,gain=0.104240596,cover=70.5709991
					47:[pool_score<0.578999996] yes=77,no=78,missing=78,gain=0.0458947718,cover=67.8270035
						77:leaf=0.00201903074,cover=23.7269993
						78:leaf=0.00487053301,cover=44.1000023
					48:leaf=-0.00484780269,cover=2.74399996
				26:[baths<2] yes=49,no=50,missing=50,gain=0.156414866,cover=49.4090004
					49:[days_since_first_seen<2] yes=79,no=80,missing=80,gain=0.0429116189,cover=28.5629997
						79:leaf=0.00412849383,cover=26.4780006
						80:leaf=0.0110095674,cover=2.08500004
					50:[days_since_first_seen<2] yes=81,no=82,missing=82,gain=0.0055962801,cover=20.8460007
						81:leaf=0.0115243094,cover=18.1660004
						82:leaf=0.00506210886,cover=2.68000007
		6:[pool_score<0.546999991] yes=13,no=14,missing=14,gain=19.3928528,cover=1273.40796
			13:[pool_score<0.545000017] yes=27,no=28,missing=28,gain=0.793727875,cover=291.186005
27:[location_city_Hanford] yes=51,no=52,gain=0.170228958,cover=44.4519997
					51:[days_since_first_seen<12] yes=83,no=84,missing=84,gain=0.0653181076,cover=42.5439987
						83:leaf=0.0172638576,cover=41.2929993
						84:leaf=0.00286637689,cover=1.25099993
					52:leaf=0.00106719637,cover=1.90799999
				28:[price_reliability_score<0.714285731] yes=53,no=54,missing=54,gain=1.02045059,cover=246.734009
					53:[days_since_first_seen<2] yes=85,no=86,missing=86,gain=0.0119180679,cover=35.4869995
						85:leaf=0.0235501546,cover=9.82499981
						86:leaf=0.0353950486,cover=25.6620007
					54:[price_reliability_score<1] yes=87,no=88,missing=88,gain=0.371376038,cover=211.247009
						87:leaf=0.0171161648,cover=37.1279984
						88:leaf=0.0239119288,cover=174.119003
14:[location_city_Three Rivers] yes=29,no=30,gain=6.68136597,cover=982.221985
				29:[baths<3.5] yes=55,no=56,missing=56,gain=6.51566887,cover=955.572998
55:[location_city_Selma] yes=89,no=90,gain=4.96209335,cover=907.350952
						89:leaf=0.0059761256,cover=863.55896
						90:leaf=0.0230756421,cover=43.7919998
					56:[pool_score<0.564999998] yes=91,no=92,missing=92,gain=0.196129799,cover=48.2220001
						91:leaf=0.00510259904,cover=1.69200003
						92:leaf=0.0261587594,cover=46.5299988
				30:[days_since_first_seen<1] yes=57,no=58,missing=58,gain=0.156521797,cover=26.6489983
					57:leaf=0.0194915067,cover=6.23699951
					58:leaf=0.035742294,cover=20.4119987


0:[bedrooms<2] yes=1,no=2,missing=2,gain=185.581863,cover=2305.19507
	1:[accommodates<3] yes=3,no=4,missing=4,gain=6.19555664,cover=465.85498
		3:[rating<5] yes=7,no=8,missing=8,gain=1.21366882,cover=295.285004
			7:[rating<4.8499999] yes=15,no=16,missing=16,gain=0.644042969,cover=284.86499
				15:[days_until_stay<15] yes=29,no=30,missing=30,gain=0.50176239,cover=66.197998
					29:leaf=-0.0304843429,cover=49.2689972
					30:[days_until_stay<27] yes=53,no=54,missing=54,gain=0.129116774,cover=16.9289989
						53:leaf=-0.0192642584,cover=15.7949991
						54:leaf=-0.000949438021,cover=1.13399994
				16:[baths<1.5] yes=31,no=32,missing=32,gain=0.18157959,cover=218.666992
31:[location_city_Seattle] yes=55,no=56,gain=0.133842468,cover=217.416992
						55:leaf=-0.0242350921,cover=11.934
						56:leaf=-0.0355437808,cover=205.482986
					32:leaf=-0.0076731178,cover=1.25
			8:[similarity_score<0.55400002] yes=17,no=18,missing=18,gain=0.0892422795,cover=10.4200001
				17:[price_reliability_score<0.285714298] yes=33,no=34,missing=34,gain=0.00133579597,cover=3.29400015
					33:leaf=-0.00196087989,cover=1.64700007
					34:leaf=-0.00621345919,cover=1.64700007
				18:leaf=-0.0170238242,cover=7.12599993
		4:[days_until_stay<17] yes=9,no=10,missing=10,gain=3.14315414,cover=170.569992
9:[location_city_Seattle] yes=19,no=20,gain=0.7352314,cover=105.022995
				19:[similarity_score<0.57099998] yes=35,no=36,missing=36,gain=0.0971677899,cover=10.1189995
					35:[baths<1] yes=57,no=58,missing=58,gain=0.111516938,cover=2.8349998
						57:leaf=-0.0087235691,cover=1.70099998
						58:leaf=0.0066956426,cover=1.13399994
					36:leaf=-0.0141686825,cover=7.28399992
				20:[days_until_stay<11] yes=37,no=38,missing=38,gain=0.317493439,cover=94.9039993
					37:leaf=-0.0309802201,cover=46.6619987
					38:leaf=-0.0230390634,cover=48.2419968
			10:[reviews<209] yes=21,no=22,missing=22,gain=0.325216055,cover=65.5469971
				21:[days_until_stay<25] yes=39,no=40,missing=40,gain=0.357612133,cover=61.2499962
					39:leaf=-0.0134326173,cover=36.7849998
					40:leaf=-0.00532847317,cover=24.4649982
				22:leaf=-0.0242504608,cover=4.29699993
	2:[bedrooms<4] yes=5,no=6,missing=6,gain=34.4590607,cover=1839.33997
5:[location_city_Foster City] yes=11,no=12,gain=1.97332716,cover=551.904968
11:[location_city_Edmonds] yes=23,no=24,gain=1.96464276,cover=532.697021
23:[location_city_San Jose] yes=41,no=42,gain=2.35788655,cover=491.152008
41:[location_city_Town Center Mountlake Terrace] yes=59,no=60,gain=2.67277622,cover=432.876007
						59:leaf=0.000656630844,cover=390.322998
						60:leaf=-0.0124012027,cover=42.5530014
					42:[rating<4.96000004] yes=61,no=62,missing=62,gain=0.74445653,cover=58.2759972
						61:leaf=-0.0156994201,cover=35.7130013
						62:leaf=-0.00393462228,cover=22.5629997
				24:[rating<4.73000002] yes=43,no=44,missing=44,gain=1.05830002,cover=41.5449982
					43:leaf=-0.0204004031,cover=22.112999
					44:[price_reliability_score<0.428571433] yes=63,no=64,missing=64,gain=0.11729674,cover=19.4319992
						63:leaf=0.000188594611,cover=8.47200012
						64:leaf=-0.0074793743,cover=10.9599991
			12:leaf=-0.0187684223,cover=19.2080002
		6:[similarity_score<0.546999991] yes=13,no=14,missing=14,gain=17.7787628,cover=1287.43494
			13:[rating<4.65999985] yes=25,no=26,missing=26,gain=4.03733826,cover=286.097992
				25:[baths<2.5] yes=45,no=46,missing=46,gain=0.192834854,cover=60.6570015
					45:leaf=0.0345068611,cover=59.2320023
					46:leaf=0.00813228823,cover=1.42499995
				26:[rating<4.9000001] yes=47,no=48,missing=48,gain=0.63174057,cover=225.44101
					47:[rating<4.8499999] yes=65,no=66,missing=66,gain=0.0382006168,cover=39.151001
						65:leaf=0.0131264133,cover=37.8880005
						66:leaf=0.00217957632,cover=1.26300001
48:[location_city_Hanford] yes=67,no=68,gain=0.331981659,cover=186.290009
						67:leaf=0.0206748918,cover=185.216003
						68:leaf=-0.00399615336,cover=1.074
14:[location_city_Three Rivers] yes=27,no=28,gain=7.55256271,cover=1001.33698
				27:[baths<3.5] yes=49,no=50,missing=50,gain=5.60763359,cover=970.151978
49:[location_city_Selma] yes=69,no=70,gain=5.24934006,cover=921.362976
						69:leaf=0.0057249181,cover=869.815002
						70:leaf=0.0220253617,cover=51.5480003
					50:[accommodates<2] yes=71,no=72,missing=72,gain=0.165125847,cover=48.7889977
						71:leaf=0.00494224159,cover=1.69200003
						72:leaf=0.0244866535,cover=47.0969963
				28:[rating<4.98999977] yes=51,no=52,missing=52,gain=0.421001434,cover=31.1849976
					51:leaf=0.0163296051,cover=6.23699951
					52:leaf=0.0354052074,cover=24.947998


0:[bedrooms<2] yes=1,no=2,missing=2,gain=170.21077,cover=2300.38086
	1:[similarity_score<0.66900003] yes=3,no=4,missing=4,gain=4.20443726,cover=463.681976
		3:[rating<4.86000013] yes=7,no=8,missing=8,gain=3.01748657,cover=414.975983
			7:[days_until_stay<17] yes=15,no=16,missing=16,gain=3.00869751,cover=158.039993
				15:[days_until_stay<5] yes=29,no=30,missing=30,gain=0.225952148,cover=111.275993
					29:leaf=-0.0322898589,cover=32.8859978
					30:leaf=-0.0248756912,cover=78.3899994
				16:[days_until_stay<27] yes=31,no=32,missing=32,gain=0.31806922,cover=46.7639961
					31:leaf=-0.0142250834,cover=34.8569984
					32:[baths<1] yes=49,no=50,missing=50,gain=0.00264959782,cover=11.9069996
						49:leaf=-0.000924213149,cover=1.13399994
						50:leaf=-0.00456019444,cover=10.7729998
8:[location_city_Seattle] yes=17,no=18,gain=1.85942841,cover=256.936005
				17:[similarity_score<0.57099998] yes=33,no=34,missing=34,gain=0.335767746,cover=25.4230003
					33:[similarity_score<0.55400002] yes=51,no=52,missing=52,gain=0.0252245069,cover=12.382
						51:leaf=-0.00420489488,cover=2.74500012
						52:leaf=-0.0120578948,cover=9.63699913
34:[location_city_San Francisco] yes=53,no=54,gain=0.22426486,cover=13.0409994
						53:leaf=-0.0284726899,cover=8.69400024
						54:leaf=-0.0107150031,cover=4.34700012
				18:leaf=-0.0335275382,cover=231.512985
		4:[days_until_stay<19] yes=9,no=10,missing=10,gain=0.378025532,cover=48.7059975
			9:leaf=-0.017194787,cover=24.0100002
			10:[days_until_stay<25] yes=19,no=20,missing=20,gain=0.0586261153,cover=24.6959991
				19:leaf=-0.0102079995,cover=13.0339994
				20:leaf=-0.00464380765,cover=11.6619997
	2:[bedrooms<4] yes=5,no=6,missing=6,gain=30.3548927,cover=1836.69897
5:[location_city_Redwood City] yes=11,no=12,gain=3.83125734,cover=555.744995
11:[location_city_Menlo Park] yes=21,no=22,gain=2.66038513,cover=435.415985
				21:[similarity_score<0.63499999] yes=35,no=36,missing=36,gain=1.97118902,cover=394.281982
					35:[tenure_runs<11] yes=55,no=56,missing=56,gain=1.20165336,cover=286.756989
						55:leaf=-0.00339392573,cover=274.28299
						56:leaf=-0.0187298339,cover=12.473999
					36:[rating<4.71000004] yes=57,no=58,missing=58,gain=0.321418762,cover=107.525002
						57:leaf=-0.00525886798,cover=16.7250004
						58:leaf=-0.0132459542,cover=90.8000031
22:[month_apr] yes=37,no=38,gain=0.0828326344,cover=41.1339989
					37:[days_until_stay<2] yes=59,no=60,missing=60,gain=0.00285001472,cover=8.56099987
						59:leaf=0.000920716033,cover=4.07399988
						60:leaf=0.00301727699,cover=4.48699999
					38:[price_reliability_score<0.428571433] yes=61,no=62,missing=62,gain=0.0235078335,cover=32.572998
						61:leaf=0.00493486924,cover=9.24199963
						62:leaf=0.00904705655,cover=23.3309994
			12:[baths<1.5] yes=23,no=24,missing=24,gain=0.185694098,cover=120.329002
				23:[rating<4.88999987] yes=39,no=40,missing=40,gain=0.336985946,cover=82.0100021
					39:[rating<4.42000008] yes=63,no=64,missing=64,gain=0.103155382,cover=21.473999
						63:leaf=0.00764179928,cover=1.66799998
						64:leaf=-0.00285966881,cover=19.8059998
					40:[bedrooms<3] yes=65,no=66,missing=66,gain=0.0630298257,cover=60.5359993
						65:leaf=0.00468110992,cover=52.7600021
						66:leaf=0.0096595427,cover=7.77600002
				24:[bedrooms<3] yes=41,no=42,missing=42,gain=0.228175163,cover=38.3190002
					41:leaf=-0.00469420757,cover=2.74399996
					42:[reviews<14] yes=67,no=68,missing=68,gain=0.0724308491,cover=35.5750008
						67:leaf=0.0100109223,cover=29.0300007
						68:leaf=0.00346021587,cover=6.54500008
		6:[similarity_score<0.546999991] yes=13,no=14,missing=14,gain=16.0966415,cover=1280.95398
			13:[rating<4.65999985] yes=25,no=26,missing=26,gain=3.31675339,cover=289.924011
				25:leaf=0.0323563516,cover=57.2729988
				26:[tenure_runs<9] yes=43,no=44,missing=44,gain=0.614906311,cover=232.651001
43:[location_city_Hanford] yes=69,no=70,gain=0.133200169,cover=81.4599991
						69:leaf=0.0150397867,cover=79.552002
						70:leaf=0.00107472984,cover=1.90799999
					44:[rating<4.98000002] yes=71,no=72,missing=72,gain=0.464317322,cover=151.190994
						71:leaf=0.0229205061,cover=97.6829987
						72:leaf=0.0162018035,cover=53.5079994
14:[location_city_Three Rivers] yes=27,no=28,gain=6.36581612,cover=991.029968
27:[location_city_Exeter] yes=45,no=46,gain=6.08893013,cover=960.411987
					45:[price_reliability_score<0.428571433] yes=73,no=74,missing=74,gain=4.90584755,cover=947.937988
						73:leaf=0.0168453362,cover=128.884003
						74:leaf=0.0063607865,cover=819.053955
					46:leaf=-0.0261067841,cover=12.473999
				28:[rating<4.98999977] yes=47,no=48,missing=48,gain=0.48156929,cover=30.6179981
					47:leaf=0.0149943456,cover=6.8039999
					48:leaf=0.0337436162,cover=23.8139992


0:[bedrooms<2] yes=1,no=2,missing=2,gain=151.873779,cover=2294.32202
	1:[pool_score<0.66900003] yes=3,no=4,missing=4,gain=3.76239777,cover=464.866974
		3:[rating<4.86000013] yes=7,no=8,missing=8,gain=2.47315216,cover=411.358978
			7:[days_until_stay<17] yes=15,no=16,missing=16,gain=2.45226669,cover=154.262985
				15:[days_until_stay<5] yes=29,no=30,missing=30,gain=0.235479355,cover=107.849998
					29:leaf=-0.0307805445,cover=34.586998
					30:leaf=-0.0235304814,cover=73.2629929
				16:[days_until_stay<27] yes=31,no=32,missing=32,gain=0.270630836,cover=46.4129982
					31:[tenure_runs<9] yes=51,no=52,missing=52,gain=0.0784685612,cover=36.7739983
						51:leaf=-0.0173694827,cover=14.6609993
						52:leaf=-0.0109520247,cover=22.112999
					32:[baths<1] yes=53,no=54,missing=54,gain=0.00205205381,cover=9.63899994
						53:leaf=-0.000899659644,cover=1.13399994
						54:leaf=-0.0042556338,cover=8.50499916
8:[location_city_Seattle] yes=17,no=18,gain=2.29030609,cover=257.095978
				17:[pool_score<0.57099998] yes=33,no=34,missing=34,gain=0.504627705,cover=26.5389996
					33:[reviews<161] yes=55,no=56,missing=56,gain=0.177843928,cover=13.4979992
						55:leaf=-0.00970440358,cover=12.3639994
						56:leaf=0.00683811028,cover=1.13399994
34:[location_city_San Francisco] yes=57,no=58,gain=0.0830249786,cover=13.0409994
						57:leaf=-0.0254750345,cover=9.31499958
						58:leaf=-0.0110222651,cover=3.72599983
18:[day_of_month_bucket_week_4] yes=35,no=36,gain=0.0774536133,cover=230.556992
					35:leaf=-0.0327426903,cover=204.307999
					36:[rating<4.94999981] yes=59,no=60,missing=60,gain=0.0743527412,cover=26.2489986
						59:leaf=-0.0271141138,cover=22.6049995
						60:leaf=-0.0125808064,cover=3.64400005
		4:[days_until_stay<19] yes=9,no=10,missing=10,gain=0.408068657,cover=53.5079994
			9:leaf=-0.0169042125,cover=28.8120003
			10:[days_until_stay<25] yes=19,no=20,missing=20,gain=0.0532168746,cover=24.6959991
				19:leaf=-0.00976395793,cover=13.7199993
				20:leaf=-0.00440916885,cover=10.9759998
	2:[bedrooms<4] yes=5,no=6,missing=6,gain=26.5789127,cover=1829.45496
5:[location_city_Redwood City] yes=11,no=12,gain=3.58324361,cover=549.484009
11:[location_city_Menlo Park] yes=21,no=22,gain=2.47190285,cover=426.105988
				21:[rating<4.92000008] yes=37,no=38,missing=38,gain=1.68040228,cover=386.356995
					37:[baths<3] yes=61,no=62,missing=62,gain=0.775619984,cover=217.076996
						61:leaf=-0.00949959829,cover=215.222992
						62:leaf=0.0173004773,cover=1.85399985
38:[location_city_Town Center Mountlake Terrace] yes=63,no=64,gain=0.646705985,cover=169.279999
						63:leaf=-0.00125901739,cover=145.729004
						64:leaf=-0.0100439666,cover=23.5510006
22:[day_of_month_bucket_month_end] yes=39,no=40,gain=0.044475019,cover=39.7490005
					39:[baths<1] yes=65,no=66,missing=66,gain=0.0258045197,cover=34.1279984
						65:leaf=0.0041919346,cover=8.73899937
						66:leaf=0.00825066585,cover=25.3889999
					40:leaf=0.00208897982,cover=5.62099981
			12:[baths<1.5] yes=23,no=24,missing=24,gain=0.186741352,cover=123.377998
				23:[rating<4.88999987] yes=41,no=42,missing=42,gain=0.19250828,cover=86.5299988
					41:[rating<4.42000008] yes=67,no=68,missing=68,gain=0.158587351,cover=24.5849991
						67:leaf=0.00882370677,cover=2.91899991
						68:leaf=-0.00207239576,cover=21.6659985
					42:[days_until_stay<28] yes=69,no=70,missing=70,gain=0.0669007301,cover=61.9449997
						69:leaf=0.00529774092,cover=54.8059998
						70:leaf=0.000137614712,cover=7.13899994
				24:[bedrooms<3] yes=43,no=44,missing=44,gain=0.211444974,cover=36.8479996
					43:leaf=-0.00452219462,cover=2.74399996
					44:[reviews<14] yes=71,no=72,missing=72,gain=0.0391900539,cover=34.1040001
						71:leaf=0.00954976305,cover=26.9640007
						72:leaf=0.00435445597,cover=7.14000034
		6:[pool_score<0.546999991] yes=13,no=14,missing=14,gain=14.5105286,cover=1279.97095
			13:[rating<2.5] yes=25,no=26,missing=26,gain=3.0046463,cover=291.65799
				25:leaf=0.0312077254,cover=50.5890007
				26:[tenure_runs<9] yes=45,no=46,missing=46,gain=0.574298859,cover=241.069
45:[location_city_Hanford] yes=73,no=74,gain=0.145162582,cover=82.2430038
						73:leaf=0.0140678091,cover=80.7519989
						74:leaf=-0.00102536182,cover=1.49099994
					46:[rating<4.98000002] yes=75,no=76,missing=76,gain=0.487609863,cover=158.826004
						75:leaf=0.0216826852,cover=101.496002
						76:leaf=0.0151341883,cover=57.3300018
14:[location_city_Three Rivers] yes=27,no=28,gain=6.04485321,cover=988.312988
27:[location_city_Exeter] yes=47,no=48,gain=5.41857529,cover=958.261963
					47:[is_weekend<1] yes=77,no=78,missing=78,gain=5.19116402,cover=945.220947
						77:leaf=0.00476700813,cover=682.138
						78:leaf=0.0130376657,cover=263.083008
48:[day_of_month_bucket_week_3] yes=79,no=80,gain=0.00701570511,cover=13.0409994
						79:leaf=-0.0258826371,cover=10.7729998
						80:leaf=-0.0109944092,cover=2.26799989
				28:[rating<4.98999977] yes=49,no=50,missing=50,gain=0.325767517,cover=30.0509987
					49:leaf=0.0149556622,cover=6.23699951
					50:leaf=0.032032501,cover=23.8139992


0:[bedrooms<2] yes=1,no=2,missing=2,gain=136.397263,cover=2273.69189
	1:[accommodates<3] yes=3,no=4,missing=4,gain=4.57159424,cover=453.143982
		3:[rating<5] yes=7,no=8,missing=8,gain=0.838050842,cover=279.117004
			7:[rating<4.88000011] yes=15,no=16,missing=16,gain=0.490783691,cover=270.451996
				15:[is_weekend<1] yes=31,no=32,missing=32,gain=0.123361588,cover=75.4589996
					31:[price_reliability_score<0.714285731] yes=53,no=54,missing=54,gain=0.101435661,cover=51.3209991
						53:leaf=-0.0272349901,cover=46.7849998
						54:leaf=-0.0135248145,cover=4.53599977
					32:leaf=-0.0190659482,cover=24.1379986
16:[location_city_Fremont] yes=33,no=34,gain=0.275764465,cover=194.992996
					33:[days_until_stay<23] yes=55,no=56,missing=56,gain=0.0261077881,cover=192.724991
						55:leaf=-0.0314111672,cover=163.205002
						56:leaf=-0.0251889434,cover=29.5199986
					34:leaf=-0.00822863262,cover=2.26799989
			8:[similarity_score<0.55400002] yes=17,no=18,missing=18,gain=0.0508951247,cover=8.66499996
				17:[price_reliability_score<0.285714298] yes=35,no=36,missing=36,gain=0.0029489696,cover=3.29400015
					35:leaf=-0.00145123259,cover=1.64700007
					36:leaf=-0.00558741856,cover=1.64700007
				18:leaf=-0.0140168164,cover=5.37099981
		4:[days_until_stay<17] yes=9,no=10,missing=10,gain=2.7053833,cover=174.026993
			9:[days_until_stay<10] yes=19,no=20,missing=20,gain=0.412275314,cover=106.677994
				19:leaf=-0.0268296544,cover=45.0819969
				20:leaf=-0.0192147773,cover=61.5959969
			10:[days_until_stay<25] yes=21,no=22,missing=22,gain=0.201977491,cover=67.348999
				21:leaf=-0.0117943725,cover=42.0889969
				22:[price_reliability_score<0.857142866] yes=37,no=38,missing=38,gain=0.141447693,cover=25.2599983
					37:leaf=-0.0156933349,cover=2.28599977
					38:leaf=-0.00414450979,cover=22.973999
	2:[bedrooms<4] yes=5,no=6,missing=6,gain=22.0881004,cover=1820.54797
5:[location_city_Redwood City] yes=11,no=12,gain=3.00775337,cover=531.375977
11:[location_city_Menlo Park] yes=23,no=24,gain=2.31970024,cover=414.141998
23:[location_city_Queen Anne] yes=39,no=40,gain=1.82445431,cover=371.061005
					39:[rating<4.86999989] yes=57,no=58,missing=58,gain=1.23897409,cover=363.083984
						57:leaf=-0.0104910582,cover=107.975998
						58:leaf=-0.00408875151,cover=255.108002
					40:[price_reliability_score<0.428571433] yes=59,no=60,missing=60,gain=0.0407665968,cover=7.97699976
						59:leaf=0.0195730049,cover=5.49300003
						60:leaf=0.0070047467,cover=2.48399997
				24:[rating<4.78999996] yes=41,no=42,missing=42,gain=0.0355775356,cover=43.0810013
					41:leaf=0.0097479159,cover=8.91800022
					42:[days_until_stay<7] yes=61,no=62,missing=62,gain=0.0601275563,cover=34.1629982
						61:leaf=0.00258294377,cover=12.651
						62:leaf=0.00719711138,cover=21.5119991
			12:[bedrooms<3] yes=25,no=26,missing=26,gain=0.150443196,cover=117.234001
				25:[rating<4.71000004] yes=43,no=44,missing=44,gain=0.109692931,cover=70.1679993
					43:leaf=-0.00473451335,cover=3.21000004
					44:[rating<4.88999987] yes=63,no=64,missing=64,gain=0.0365724862,cover=66.9580002
						63:leaf=0.00112887193,cover=12.0239992
						64:leaf=0.00428513577,cover=54.9340019
				26:[similarity_score<0.439999998] yes=45,no=46,missing=46,gain=0.173121333,cover=47.0660019
					45:[rating<4.86000013] yes=65,no=66,missing=66,gain=0.218509153,cover=16.8120003
						65:leaf=-0.00263617397,cover=8.75699997
						66:leaf=0.00821845699,cover=8.05500031
					46:[accommodates<8] yes=67,no=68,missing=68,gain=0.0401926041,cover=30.2539997
						67:leaf=0.010566432,cover=21.177
						68:leaf=0.00542267598,cover=9.07700062
		6:[similarity_score<0.546999991] yes=13,no=14,missing=14,gain=13.20681,cover=1289.172
			13:[rating<2.5] yes=27,no=28,missing=28,gain=2.82817078,cover=299.265015
				27:[similarity_score<0.507000029] yes=47,no=48,missing=48,gain=0.0412158966,cover=53.8569984
					47:leaf=0.0160452016,cover=4.171
					48:leaf=0.0303588808,cover=49.6860008
				28:[tenure_runs<9] yes=49,no=50,missing=50,gain=0.495121002,cover=245.408005
49:[location_city_Hanford] yes=69,no=70,gain=0.105096817,cover=86.5790024
						69:leaf=0.0135398461,cover=84.6709976
						70:leaf=0.00107310293,cover=1.90799999
					50:[rating<4.98000002] yes=71,no=72,missing=72,gain=0.380123138,cover=158.828995
						71:leaf=0.0205078628,cover=100.406998
						72:leaf=0.0146428673,cover=58.4220009
14:[location_city_Exeter] yes=29,no=30,gain=5.70400047,cover=989.906982
				29:[price_reliability_score<0.428571433] yes=51,no=52,missing=52,gain=5.83240318,cover=976.29895
					51:[rating<4.76000023] yes=73,no=74,missing=74,gain=6.8891201,cover=136.315002
						73:leaf=0.0365564339,cover=33.4279976
						74:leaf=0.010531269,cover=102.886993
					52:[rating<4.76000023] yes=75,no=76,missing=76,gain=8.78958797,cover=839.984009
						75:leaf=-0.00441490812,cover=162.760986
						76:leaf=0.00850232132,cover=677.222961
				30:leaf=-0.0239642728,cover=13.6079998


0:[location_city_Seattle] yes=1,no=2,gain=110.658455,cover=2282.16602
	1:[days_since_first_seen<2] yes=3,no=4,missing=4,gain=18.4175186,cover=1805.521
		3:[accommodates<13] yes=7,no=8,missing=8,gain=8.19363785,cover=997.135986
			7:[pool_score<0.546999991] yes=15,no=16,missing=16,gain=7.20541906,cover=882.723999
15:[location_city_Visalia] yes=31,no=32,gain=3.47129917,cover=128.908005
31:[location_city_San Francisco] yes=57,no=58,gain=0.932267308,cover=67.2559967
						57:leaf=0.00436416874,cover=61.2410011
						58:leaf=-0.0148874437,cover=6.01499987
					32:[pool_score<0.462000012] yes=59,no=60,missing=60,gain=0.0157432556,cover=61.6520004
						59:leaf=0.0106534949,cover=4.6789999
						60:leaf=0.0193262417,cover=56.9729996
16:[location_city_South Lake Tahoe] yes=33,no=34,gain=5.89463186,cover=753.815979
					33:[baths<3.5] yes=61,no=62,missing=62,gain=3.26843548,cover=682.352966
						61:leaf=-0.00420460803,cover=674.153992
						62:leaf=0.0258279592,cover=8.1989994
					34:[reviews<88] yes=63,no=64,missing=64,gain=0.262780428,cover=71.4629974
						63:leaf=0.0125644077,cover=59.303997
						64:leaf=0.00406377763,cover=12.1590004
			8:[reviews<14] yes=17,no=18,missing=18,gain=2.38628006,cover=114.411995
				17:leaf=0.0325325541,cover=13.8849993
				18:[reviews<21] yes=35,no=36,missing=36,gain=1.90674114,cover=100.527
					35:[tenure_runs<13] yes=65,no=66,missing=66,gain=0.0466782451,cover=13.0409994
						65:leaf=-0.00911304448,cover=7.37099981
						66:leaf=-0.00258647464,cover=5.6699996
					36:[reviews<89] yes=67,no=68,missing=68,gain=0.620921135,cover=87.4860001
						67:leaf=0.0154570434,cover=70.5979996
						68:leaf=0.00446238881,cover=16.8879986
		4:[pool_score<0.555000007] yes=9,no=10,missing=10,gain=6.87599182,cover=808.38501
9:[location_city_Edmonds] yes=19,no=20,gain=0.921947479,cover=293.778992
				19:[is_weekend<1] yes=37,no=38,missing=38,gain=0.75421524,cover=289.946991
					37:[price_reliability_score<1] yes=69,no=70,missing=70,gain=0.374662399,cover=218.223007
						69:leaf=0.0127916038,cover=74.9639969
						70:leaf=0.017689703,cover=143.259003
					38:[pool_score<0.545000017] yes=71,no=72,missing=72,gain=0.563402176,cover=71.723999
						71:leaf=0.00714467978,cover=6.61999989
						72:leaf=0.0238392521,cover=65.1040039
				20:[pool_score<0.547999978] yes=39,no=40,missing=40,gain=0.00497230142,cover=3.83199978
					39:leaf=-0.00709075341,cover=2.18799996
					40:leaf=-0.00187148119,cover=1.64399993
			10:[accommodates<15] yes=21,no=22,missing=22,gain=4.89958572,cover=514.605957
21:[location_city_Three Rivers] yes=41,no=42,gain=4.67011404,cover=424.605988
					41:[reviews<30] yes=73,no=74,missing=74,gain=5.31855249,cover=406.461975
						73:leaf=-0.000961570244,cover=217.94899
						74:leaf=0.0104872631,cover=188.513
					42:leaf=0.0296626966,cover=18.1439991
				22:[pool_score<0.625] yes=43,no=44,missing=44,gain=4.15164566,cover=90
					43:leaf=0.0438510738,cover=12.7619991
					44:[is_weekend<1] yes=75,no=76,missing=76,gain=0.164799213,cover=77.237999
						75:leaf=0.0120527185,cover=62.3079987
						76:leaf=0.018887667,cover=14.9300003
	2:[accommodates<3] yes=5,no=6,missing=6,gain=4.20378113,cover=476.644989
		5:[pool_score<0.564999998] yes=11,no=12,missing=12,gain=5.00943756,cover=284.132996
			11:[price_reliability_score<0.285714298] yes=23,no=24,missing=24,gain=0.113192238,cover=17.3929996
				23:[baths<1] yes=45,no=46,missing=46,gain=0.0369207114,cover=4.8119998
					45:leaf=0.0101969261,cover=2.17000008
					46:[days_until_stay<12] yes=77,no=78,missing=78,gain=0.00435065199,cover=2.64199996
						77:leaf=0.00296595646,cover=1.12800002
						78:leaf=-0.000344554079,cover=1.51399994
				24:[days_until_stay<25] yes=47,no=48,missing=48,gain=0.0219671074,cover=12.5809994
47:[day_of_month_bucket_week_1] yes=79,no=80,gain=0.00631448254,cover=10.9399996
						79:leaf=-0.00161662698,cover=8.20499992
						80:leaf=-0.00451419083,cover=2.7349999
					48:leaf=0.00252442574,cover=1.64100003
			12:[price_reliability_score<1] yes=25,no=26,missing=26,gain=0.37260437,cover=266.73999
25:[day_of_month_bucket_week_4] yes=49,no=50,gain=0.166549683,cover=198.699997
49:[day_of_month_bucket_week_3] yes=81,no=82,gain=0.166179657,cover=184.028992
						81:leaf=-0.026616646,cover=166.128998
						82:leaf=-0.0186231658,cover=17.8999996
					50:[price_reliability_score<0.714285731] yes=83,no=84,missing=84,gain=0.131524682,cover=14.6709995
						83:leaf=-0.0186650809,cover=13.5369997
						84:leaf=-0.000516395259,cover=1.13399994
				26:leaf=-0.0310832169,cover=68.0399933
		6:[days_until_stay<19] yes=13,no=14,missing=14,gain=1.77894211,cover=192.511993
			13:[accommodates<5] yes=27,no=28,missing=28,gain=1.68453026,cover=139.269989
				27:[days_until_stay<11] yes=51,no=52,missing=52,gain=0.532817841,cover=114.124992
					51:leaf=-0.0254794098,cover=47.723999
					52:[pool_score<0.625] yes=85,no=86,missing=86,gain=0.0103082657,cover=66.401001
						85:leaf=-0.0193576496,cover=35.5309982
						86:leaf=-0.0149562014,cover=30.8699989
				28:[accommodates<7] yes=53,no=54,missing=54,gain=0.24749276,cover=25.1450005
					53:[is_weekend<1] yes=87,no=88,missing=88,gain=0.0791686326,cover=6.83099985
						87:leaf=-0.00194543123,cover=4.96799994
						88:leaf=0.00822106842,cover=1.86299992
					54:[accommodates<10] yes=89,no=90,missing=90,gain=0.0252835155,cover=18.3139992
						89:leaf=-0.00569338212,cover=7.39799976
						90:leaf=-0.0111438138,cover=10.9160004
			14:[days_until_stay<25] yes=29,no=30,missing=30,gain=0.138947487,cover=53.2419968
				29:leaf=-0.00996107236,cover=28.2009983
				30:[tenure_runs<9] yes=55,no=56,missing=56,gain=0.0131051093,cover=25.0409985
					55:leaf=-0.00900007598,cover=1.26199996
					56:leaf=-0.0039584632,cover=23.7789993


0:[bedrooms<2] yes=1,no=2,missing=2,gain=113.333443,cover=2287.26099
	1:[accommodates<3] yes=3,no=4,missing=4,gain=3.87898254,cover=470.974976
		3:[similarity_score<0.55400002] yes=7,no=8,missing=8,gain=0.610023499,cover=288.743988
			7:[price_reliability_score<0.285714298] yes=15,no=16,missing=16,gain=0.0237524807,cover=5.44200039
				15:leaf=-0.00127527781,cover=1.64700007
				16:leaf=-0.00916085765,cover=3.79500008
			8:[price_reliability_score<1] yes=17,no=18,missing=18,gain=0.189315796,cover=283.302002
				17:[price_reliability_score<0.857142866] yes=31,no=32,missing=32,gain=0.198215485,cover=218.663986
31:[location_city_Fremont] yes=53,no=54,gain=0.152835846,cover=212.426987
						53:leaf=-0.0252320059,cover=209.591995
						54:leaf=-0.00888082664,cover=2.8349998
					32:leaf=-0.0124883866,cover=6.23699951
				18:leaf=-0.0295140389,cover=64.6380005
4:[lead_time_bucket_days_15_30] yes=9,no=10,gain=1.67850113,cover=182.230988
9:[location_city_San Francisco] yes=19,no=20,gain=0.298627853,cover=92.4589996
				19:[similarity_score<0.66900003] yes=33,no=34,missing=34,gain=0.184558868,cover=83.0449982
					33:leaf=-0.0230912305,cover=70.010994
					34:leaf=-0.0141620608,cover=13.0339994
20:[day_of_week_fri] yes=35,no=36,gain=0.107586473,cover=9.41399956
					35:leaf=-0.0128945028,cover=7.65899992
					36:leaf=0.00043926682,cover=1.75499988
			10:[reviews<209] yes=21,no=22,missing=22,gain=0.385037899,cover=89.7719955
21:[day_of_month_bucket_week_3] yes=37,no=38,gain=0.131901503,cover=82.284996
37:[day_of_week_tue] yes=55,no=56,gain=0.11369729,cover=37.3239975
						55:leaf=-0.00518374098,cover=26.9709988
						56:leaf=-0.0116260238,cover=10.3529997
					38:leaf=-0.0117354281,cover=44.9609985
				22:leaf=-0.0216581393,cover=7.48699999
	2:[bedrooms<4] yes=5,no=6,missing=6,gain=18.9116268,cover=1816.28601
5:[location_city_Redwood City] yes=11,no=12,gain=2.60737419,cover=523.775024
11:[location_city_Menlo Park] yes=23,no=24,gain=1.86155939,cover=409.518982
				23:[similarity_score<0.63499999] yes=39,no=40,missing=40,gain=1.48787785,cover=372.178009
39:[location_city_Queen Anne] yes=57,no=58,gain=1.15308046,cover=277.386993
						57:leaf=-0.00405488955,cover=271.269989
						58:leaf=0.0163764525,cover=6.11699963
40:[location_city_Foster City] yes=59,no=60,gain=0.324771404,cover=94.7910004
						59:leaf=-0.00906431861,cover=74.8970032
						60:leaf=-0.0165878069,cover=19.8939991
24:[month_apr] yes=41,no=42,gain=0.0613201261,cover=37.3409996
					41:[days_since_first_seen<1] yes=61,no=62,missing=62,gain=0.00243481807,cover=8.71500015
						61:leaf=0.00300993654,cover=4.07399988
						62:leaf=0.0010389376,cover=4.64099979
					42:[similarity_score<0.57099998] yes=63,no=64,missing=64,gain=0.0134484768,cover=28.6259995
						63:leaf=0.00504550291,cover=11.5739994
						64:leaf=0.00842913892,cover=17.052
			12:[baths<1.5] yes=25,no=26,missing=26,gain=0.19476223,cover=114.255997
				25:[similarity_score<0.42899999] yes=43,no=44,missing=44,gain=0.109343022,cover=80.737999
					43:[price_reliability_score<0.714285731] yes=65,no=66,missing=66,gain=0.0956523418,cover=14.1779995
						65:leaf=-0.00387330959,cover=9.5909996
						66:leaf=0.00423322991,cover=4.58699989
44:[day_of_month_bucket_week_1] yes=67,no=68,gain=0.0204643905,cover=66.5599976
						67:leaf=0.0041027898,cover=51.3139992
						68:leaf=0.00182968064,cover=15.2459993
				26:[bedrooms<3] yes=45,no=46,missing=46,gain=0.135723293,cover=33.5180016
					45:leaf=-0.00368989073,cover=2.05800009
					46:[price_reliability_score<0.285714298] yes=69,no=70,missing=70,gain=0.0500033498,cover=31.460001
						69:leaf=-0.00135636295,cover=1.07200003
						70:leaf=0.00851504691,cover=30.3880005
		6:[similarity_score<0.546999991] yes=13,no=14,missing=14,gain=11.2579269,cover=1292.51099
			13:[similarity_score<0.545000017] yes=27,no=28,missing=28,gain=0.386684418,cover=288.513
27:[location_city_Hanford] yes=47,no=48,gain=0.0971405506,cover=39.5950012
47:[location_city_Sammamish] yes=71,no=72,gain=0.0494987965,cover=37.6870003
						71:leaf=0.013062845,cover=36.612999
						72:leaf=0.00107640913,cover=1.074
					48:leaf=0.000773889886,cover=1.90799999
				28:[price_reliability_score<0.714285731] yes=49,no=50,missing=50,gain=0.650524139,cover=248.917999
					49:[days_since_first_seen<2] yes=73,no=74,missing=74,gain=0.00514316559,cover=34.3930016
						73:leaf=0.0177769382,cover=9.27700043
						74:leaf=0.0269746613,cover=25.1160011
					50:[price_reliability_score<1] yes=75,no=76,missing=76,gain=0.375095367,cover=214.525009
						75:leaf=0.0117221717,cover=36.0359993
						76:leaf=0.0180434939,cover=178.488998
14:[location_city_Exeter] yes=29,no=30,gain=4.78994846,cover=1003.99799
				29:[is_weekend<1] yes=51,no=52,missing=52,gain=4.36159325,cover=990.389954
					51:[baths<3.5] yes=77,no=78,missing=78,gain=3.33636761,cover=704.513
						77:leaf=0.00379583403,cover=673.96698
						78:leaf=0.0204525813,cover=30.5459995
					52:[days_since_first_seen<3] yes=79,no=80,missing=80,gain=1.47472763,cover=285.876984
						79:leaf=0.00885132235,cover=171.580002
						80:leaf=0.0162925627,cover=114.296997
				30:leaf=-0.0222177282,cover=13.6079998


0:[bedrooms<2] yes=1,no=2,missing=2,gain=99.5857086,cover=2286.45801
	1:[accommodates<3] yes=3,no=4,missing=4,gain=3.69716644,cover=460.679993
		3:[rating<5] yes=7,no=8,missing=8,gain=0.595787048,cover=284.213989
			7:[rating<4.8499999] yes=15,no=16,missing=16,gain=0.330184937,cover=276.718994
				15:[days_until_stay<15] yes=31,no=32,missing=32,gain=0.290166855,cover=64.3829956
					31:[rating<4.67000008] yes=59,no=60,missing=60,gain=0.210022926,cover=49.7759972
						59:leaf=-0.0275735985,cover=19.2779999
						60:leaf=-0.0184786692,cover=30.4979992
					32:[days_until_stay<27] yes=61,no=62,missing=62,gain=0.0750199556,cover=14.6069994
						61:leaf=-0.01367814,cover=13.4729996
						62:leaf=-0.000170860585,cover=1.13399994
16:[location_city_San Francisco] yes=33,no=34,gain=0.295276642,cover=212.335999
					33:[similarity_score<0.617999971] yes=63,no=64,missing=64,gain=0.137477875,cover=211.201996
						63:leaf=-0.0272325017,cover=151.145996
						64:leaf=-0.0224057753,cover=60.0559998
					34:leaf=-0.000206639204,cover=1.13399994
			8:[similarity_score<0.55400002] yes=17,no=18,missing=18,gain=0.0250133872,cover=7.49499989
				17:[price_reliability_score<0.285714298] yes=35,no=36,missing=36,gain=0.000807736069,cover=2.74500012
					35:leaf=-0.00125152746,cover=1.64700007
					36:leaf=-0.0042288159,cover=1.09800005
				18:leaf=-0.0108754961,cover=4.75
		4:[days_until_stay<19] yes=9,no=10,missing=10,gain=1.90442944,cover=176.465988
			9:[days_until_stay<10] yes=19,no=20,missing=20,gain=0.50627327,cover=119.150993
19:[location_city_San Francisco] yes=37,no=38,gain=0.0252494812,cover=43.7290001
					37:leaf=-0.023373032,cover=42.5709991
					38:leaf=-0.00651619304,cover=1.15799999
20:[location_city_San Francisco] yes=39,no=40,gain=0.168492317,cover=75.4219971
					39:[similarity_score<0.625] yes=65,no=66,missing=66,gain=0.0308203697,cover=68.9749985
						65:leaf=-0.0179600995,cover=39.4769974
						66:leaf=-0.0135467295,cover=29.4979992
					40:[price_reliability_score<0.285714298] yes=67,no=68,missing=68,gain=0.212884828,cover=6.44700003
						67:leaf=0.00615285151,cover=1.75499988
						68:leaf=-0.0113426773,cover=4.69199991
			10:[price_reliability_score<0.857142866] yes=21,no=22,missing=22,gain=0.237969875,cover=57.3149986
				21:[similarity_score<0.625] yes=41,no=42,missing=42,gain=0.0348308086,cover=5.43099976
					41:leaf=-0.0188523941,cover=4.05900002
					42:leaf=-0.0046808077,cover=1.37199998
				22:[days_until_stay<25] yes=43,no=44,missing=44,gain=0.118363857,cover=51.8839989
					43:leaf=-0.00844792556,cover=24.4649982
					44:leaf=-0.00348683423,cover=27.4189987
	2:[bedrooms<4] yes=5,no=6,missing=6,gain=18.0958424,cover=1825.77795
5:[location_city_Redwood City] yes=11,no=12,gain=2.59372854,cover=543.594971
11:[location_city_Menlo Park] yes=23,no=24,gain=1.84754109,cover=422.312988
				23:[similarity_score<0.63499999] yes=45,no=46,missing=46,gain=1.36749029,cover=383.298004
					45:[price_reliability_score<0.714285731] yes=69,no=70,missing=70,gain=1.35264719,cover=277.723999
						69:leaf=-0.00104206917,cover=190.641998
						70:leaf=-0.0085407244,cover=87.0820007
					46:[rating<4.71000004] yes=71,no=72,missing=72,gain=0.275201321,cover=105.573997
						71:leaf=-0.00346038933,cover=14.7180004
						72:leaf=-0.0111281211,cover=90.8560028
				24:[rating<4.78999996] yes=47,no=48,missing=48,gain=0.0415080786,cover=39.0149994
					47:leaf=0.00914818421,cover=8.91800022
					48:[days_until_stay<6] yes=73,no=74,missing=74,gain=0.0427050292,cover=30.0970001
						73:leaf=0.0018776966,cover=9.8239994
						74:leaf=0.00612644432,cover=20.2729988
			12:[baths<1.5] yes=25,no=26,missing=26,gain=0.161090672,cover=121.281998
				25:[rating<4.88999987] yes=49,no=50,missing=50,gain=0.197784901,cover=85.75
					49:[rating<4.42000008] yes=75,no=76,missing=76,gain=0.131964937,cover=22.7249985
						75:leaf=0.00791281089,cover=2.50199986
						76:leaf=-0.00258332281,cover=20.2229996
					50:[bedrooms<3] yes=77,no=78,missing=78,gain=0.0306946933,cover=63.0250015
						77:leaf=0.00364587153,cover=53.3950005
						78:leaf=0.00690531684,cover=9.63000011
				26:[bedrooms<3] yes=51,no=52,missing=52,gain=0.167477787,cover=35.5320015
					51:leaf=-0.00389367831,cover=2.74399996
					52:[rating<4.80999994] yes=79,no=80,missing=80,gain=0.0146704912,cover=32.788002
						79:leaf=0.009410806,cover=15.1270008
						80:leaf=0.00607170537,cover=17.6610012
		6:[similarity_score<0.546999991] yes=13,no=14,missing=14,gain=9.59601212,cover=1282.18298
			13:[rating<2.5] yes=27,no=28,missing=28,gain=2.55571175,cover=297.502014
				27:leaf=0.0261799879,cover=54.6650009
				28:[tenure_runs<9] yes=53,no=54,missing=54,gain=0.410108566,cover=242.837006
					53:[rating<4.96000004] yes=81,no=82,missing=82,gain=0.111320972,cover=89.4670029
						81:leaf=0.00941949338,cover=58.1850014
						82:leaf=0.0137945637,cover=31.2819996
					54:[rating<4.98000002] yes=83,no=84,missing=84,gain=0.395986557,cover=153.369995
						83:leaf=0.017815087,cover=95.4940033
						84:leaf=0.0120027503,cover=57.8759995
			14:[is_weekend<1] yes=29,no=30,missing=30,gain=4.077631,cover=984.680969
				29:[rating<4.76999998] yes=55,no=56,missing=56,gain=4.25441885,cover=699.747009
					55:[price_reliability_score<0.428571433] yes=85,no=86,missing=86,gain=6.27416801,cover=150.259995
						85:leaf=0.0244677272,cover=16.8889999
						86:leaf=-0.00706433877,cover=133.371002
					56:[accommodates<14] yes=87,no=88,missing=88,gain=7.10264587,cover=549.487
						87:leaf=0.00124009862,cover=318.39798
						88:leaf=0.0127456402,cover=231.088989
				30:[accommodates<13] yes=57,no=58,missing=58,gain=1.49038887,cover=284.93399
					57:[days_since_first_seen<3] yes=89,no=90,missing=90,gain=1.5950942,cover=160.199997
						89:leaf=0.00489254249,cover=119.491997
						90:leaf=0.0163248852,cover=40.7080002
					58:[reviews<14] yes=91,no=92,missing=92,gain=1.75260735,cover=124.733994
						91:leaf=0.0293378029,cover=18.3899994
						92:leaf=0.0125789568,cover=106.343994


0:[location_city_Seattle] yes=1,no=2,gain=83.2002792,cover=2305.45605
	1:[days_since_first_seen<2] yes=3,no=4,missing=4,gain=14.5791454,cover=1816.41797
		3:[baths<3] yes=7,no=8,missing=8,gain=4.56518269,cover=1000.61597
			7:[similarity_score<0.546999991] yes=15,no=16,missing=16,gain=4.84860229,cover=847.156982
15:[location_city_Visalia] yes=31,no=32,gain=2.45920467,cover=123.431999
					31:[rating<4.76000023] yes=59,no=60,missing=60,gain=0.760660887,cover=70.4100037
						59:leaf=0.0121538853,cover=14.4870005
						60:leaf=-0.000361866405,cover=55.9230003
					32:[rating<4.61000013] yes=61,no=62,missing=62,gain=0.50027132,cover=53.0219994
						61:leaf=0.0250009801,cover=13.632
						62:leaf=0.013104111,cover=39.3899994
16:[location_city_South Lake Tahoe] yes=33,no=34,gain=3.64646101,cover=723.724976
33:[location_city_Selma] yes=63,no=64,gain=2.93800139,cover=666.460999
						63:leaf=-0.00370167731,cover=651.502991
						64:leaf=0.0180280041,cover=14.9580002
					34:[rating<4.98000002] yes=65,no=66,missing=66,gain=0.23247385,cover=57.2639999
						65:leaf=0.00806050655,cover=47.0579987
						66:leaf=0.0166902374,cover=10.2059994
			8:[tenure_runs<11] yes=17,no=18,missing=18,gain=1.42363977,cover=153.459
17:[location_city_Renton] yes=35,no=36,gain=1.49275208,cover=93.1029968
					35:[reviews<15] yes=67,no=68,missing=68,gain=0.984694004,cover=89.1340027
						67:leaf=0.0225090403,cover=24.4249992
						68:leaf=0.0104741072,cover=64.7089996
					36:leaf=-0.0147529859,cover=3.96899986
				18:[reviews<21] yes=37,no=38,missing=38,gain=3.28384972,cover=60.355999
					37:[rating<4.75] yes=69,no=70,missing=70,gain=0.175957918,cover=24.6239986
						69:leaf=-0.00315830274,cover=6.23699951
						70:leaf=-0.0134459306,cover=18.3869991
					38:[reviews<56] yes=71,no=72,missing=72,gain=0.164191008,cover=35.7319984
						71:leaf=0.0176465772,cover=10.7729998
						72:leaf=0.00935418904,cover=24.9589996
		4:[rating<4.73000002] yes=9,no=10,missing=10,gain=5.13502121,cover=815.802002
			9:[tenure_runs<9] yes=19,no=20,missing=20,gain=3.93587208,cover=70.0419998
				19:[rating<4.67999983] yes=39,no=40,missing=40,gain=1.3592453,cover=62.6889992
39:[location_city_Mountain View] yes=73,no=74,gain=1.04867077,cover=51.348999
						73:leaf=0.0240232851,cover=49.0810013
						74:leaf=-0.00785754435,cover=2.26799989
					40:leaf=0.0427640229,cover=11.3399992
				20:leaf=-0.0106647704,cover=7.35299969
			10:[rating<4.76999998] yes=21,no=22,missing=22,gain=10.0406208,cover=745.76001
				21:[is_weekend<1] yes=41,no=42,missing=42,gain=1.26924407,cover=86.4509964
41:[day_of_month_bucket_week_2] yes=75,no=76,gain=0.057312727,cover=71.1419983
						75:leaf=-0.00860695075,cover=45.7769966
						76:leaf=-0.012412875,cover=25.3649979
					42:[price_reliability_score<0.428571433] yes=77,no=78,missing=78,gain=0.396209538,cover=15.3089991
						77:leaf=0.0229811911,cover=1.70099998
						78:leaf=0.00184264092,cover=13.6079998
22:[location_city_Three Rivers] yes=43,no=44,gain=2.26993942,cover=659.309021
					43:[tenure_runs<12] yes=79,no=80,missing=80,gain=2.48590088,cover=637.804993
						79:leaf=0.00792519376,cover=426.470001
						80:leaf=0.0145984935,cover=211.334991
					44:leaf=0.0264756959,cover=21.5039997
	2:[baths<1.5] yes=5,no=6,missing=6,gain=2.24154663,cover=489.037994
		5:[similarity_score<0.66900003] yes=11,no=12,missing=12,gain=2.15940094,cover=454.623993
			11:[similarity_score<0.549000025] yes=23,no=24,missing=24,gain=2.24084473,cover=398.371979
				23:[price_reliability_score<0.285714298] yes=45,no=46,missing=46,gain=0.116409168,cover=13.1090002
					45:leaf=0.00939565338,cover=1.62199998
46:[day_of_month_bucket_week_4] yes=81,no=82,gain=0.0107632913,cover=11.4869995
						81:leaf=-0.00287957233,cover=9.29899979
						82:leaf=0.000709791959,cover=2.18799996
				24:[rating<4.88000011] yes=47,no=48,missing=48,gain=2.43119812,cover=385.26297
47:[lead_time_bucket_days_15_30] yes=83,no=84,gain=1.43686485,cover=161.135986
						83:leaf=-0.0201432761,cover=98.1719971
						84:leaf=-0.0101831798,cover=62.9639969
					48:[price_reliability_score<0.571428597] yes=85,no=86,missing=86,gain=0.0433311462,cover=224.126999
						85:leaf=-0.0230865981,cover=133.640991
						86:leaf=-0.0267063659,cover=90.4859924
12:[day_of_month_bucket_week_4] yes=25,no=26,gain=0.145427942,cover=56.2519989
25:[day_of_month_bucket_month_end] yes=49,no=50,gain=0.0274825096,cover=42.5319977
					49:leaf=-0.0115112914,cover=41.1599998
					50:leaf=-0.0022435186,cover=1.37199998
				26:leaf=-0.00481734378,cover=13.7199993
		6:[price_reliability_score<0.714285731] yes=13,no=14,missing=14,gain=0.325483322,cover=34.4140015
			13:[similarity_score<0.564999998] yes=27,no=28,missing=28,gain=0.101539969,cover=27.5830002
27:[day_of_week_sat] yes=51,no=52,gain=0.000303457375,cover=2.64199996
					51:leaf=7.24859492e-05,cover=1.03900003
					52:leaf=0.00115984725,cover=1.60300004
				28:[baths<3] yes=53,no=54,missing=54,gain=0.110000253,cover=24.941
					53:[price_reliability_score<0.285714298] yes=87,no=88,missing=88,gain=0.0215940252,cover=8.08100033
						87:leaf=0.000202413416,cover=2.4920001
						88:leaf=-0.00518338056,cover=5.58899975
54:[day_of_month_bucket_week_4] yes=89,no=90,gain=0.0117044449,cover=16.8600006
						89:leaf=-0.011823847,cover=15.5279999
						90:leaf=-0.00321375742,cover=1.33200002
			14:[baths<2.5] yes=29,no=30,missing=30,gain=0.104157045,cover=6.83099985
29:[day_of_month_bucket_week_2] yes=55,no=56,gain=0.0268811882,cover=3.10500002
					55:leaf=0.0118712997,cover=1.86299992
					56:leaf=0.0015432894,cover=1.24199998
				30:[is_weekend<1] yes=57,no=58,missing=58,gain=0.012570668,cover=3.72599983
					57:leaf=-0.00362557522,cover=2.48399997
					58:leaf=0.00141979777,cover=1.24199998


0:[bedrooms<2] yes=1,no=2,missing=2,gain=86.6989212,cover=2288.58105
	1:[accommodates<3] yes=3,no=4,missing=4,gain=3.33383179,cover=472.418976
		3:[rating<5] yes=7,no=8,missing=8,gain=0.349769592,cover=297.712982
			7:[rating<4.8499999] yes=15,no=16,missing=16,gain=0.290576935,cover=288.957977
				15:[is_weekend<1] yes=31,no=32,missing=32,gain=0.206280708,cover=67.8689957
					31:[rating<4.69000006] yes=57,no=58,missing=58,gain=0.277076721,cover=44.4899979
						57:leaf=-0.027545793,cover=15.5249996
						58:leaf=-0.0172077026,cover=28.9649982
					32:[days_until_stay<6] yes=59,no=60,missing=60,gain=0.00405037403,cover=23.3789997
						59:leaf=-0.0162383243,cover=11.3399992
						60:leaf=-0.010671814,cover=12.0389996
16:[location_city_San Francisco] yes=33,no=34,gain=0.256099701,cover=221.088989
					33:[days_until_stay<23] yes=61,no=62,missing=62,gain=0.152088165,cover=219.954987
						61:leaf=-0.0249261539,cover=177.811996
						62:leaf=-0.0196860265,cover=42.1429977
					34:leaf=-0.000102800142,cover=1.13399994
			8:[similarity_score<0.55400002] yes=17,no=18,missing=18,gain=0.014752686,cover=8.75500011
				17:leaf=-0.00415886194,cover=2.1960001
				18:leaf=-0.0120914942,cover=6.55900002
		4:[days_until_stay<17] yes=9,no=10,missing=10,gain=1.51135063,cover=174.705994
			9:[days_until_stay<10] yes=19,no=20,missing=20,gain=0.210464478,cover=108.007996
19:[location_city_San Francisco] yes=35,no=36,gain=0.00741767883,cover=44.4059982
					35:leaf=-0.0206199847,cover=43.2479973
					36:leaf=-0.00624204846,cover=1.15799999
20:[location_city_San Francisco] yes=37,no=38,gain=0.0684971809,cover=63.6019974
					37:leaf=-0.0157069173,cover=53.5369987
					38:[similarity_score<0.57099998] yes=63,no=64,missing=64,gain=0.0964754224,cover=10.0649996
						63:leaf=-0.00166394969,cover=3.40199995
						64:leaf=-0.0123457601,cover=6.66300011
			10:[reviews<209] yes=21,no=22,missing=22,gain=0.176243186,cover=66.697998
				21:[days_until_stay<25] yes=39,no=40,missing=40,gain=0.164545774,cover=63.041996
					39:[days_until_stay<19] yes=65,no=66,missing=66,gain=0.00380599499,cover=37.2329979
						65:leaf=-0.0106458925,cover=12.4109993
						66:leaf=-0.00753561128,cover=24.8219986
					40:[price_reliability_score<0.428571433] yes=67,no=68,missing=68,gain=0.0201643407,cover=25.8089981
						67:leaf=-0.0084956577,cover=1.13399994
						68:leaf=-0.00289232447,cover=24.6749992
				22:leaf=-0.0174079463,cover=3.6559999
	2:[bedrooms<4] yes=5,no=6,missing=6,gain=13.9012413,cover=1816.16199
5:[location_city_Redwood City] yes=11,no=12,gain=1.91518474,cover=537.849976
11:[location_city_Menlo Park] yes=23,no=24,gain=1.4957974,cover=420.261993
				23:[similarity_score<0.63499999] yes=41,no=42,missing=42,gain=1.26108027,cover=379.567993
					41:[reviews<69] yes=69,no=70,missing=70,gain=1.01451874,cover=277.436981
						69:leaf=-0.00153766142,cover=239.362991
						70:leaf=-0.0102375774,cover=38.0739975
42:[location_city_Foster City] yes=71,no=72,gain=0.250361681,cover=102.130997
						71:leaf=-0.00794085953,cover=84.2949982
						72:leaf=-0.0147282425,cover=17.8360004
24:[month_apr] yes=43,no=44,gain=0.0549694002,cover=40.6940002
					43:[days_until_stay<2] yes=73,no=74,missing=74,gain=0.00639029313,cover=8.56099987
						73:leaf=0.000125013074,cover=4.07399988
						74:leaf=0.0027712814,cover=4.48699999
44:[day_of_week_wed] yes=75,no=76,gain=0.0414551497,cover=32.1329994
						75:leaf=0.00727745658,cover=25.8179989
						76:leaf=0.00228360179,cover=6.31500006
			12:[price_reliability_score<0.571428597] yes=25,no=26,missing=26,gain=0.115877271,cover=117.587997
				25:[rating<4.86000013] yes=45,no=46,missing=46,gain=0.159993425,cover=45.8209991
					45:[accommodates<2] yes=77,no=78,missing=78,gain=0.067674987,cover=7.97099972
						77:leaf=-0.00625707814,cover=6.83699989
						78:leaf=0.00430037593,cover=1.13399994
					46:[bedrooms<3] yes=79,no=80,missing=80,gain=0.0343173444,cover=37.8499985
						79:leaf=0.00229409174,cover=33.2919998
						80:leaf=0.00673920661,cover=4.55800009
				26:[similarity_score<0.42899999] yes=47,no=48,missing=48,gain=0.0691273808,cover=71.7669983
					47:[rating<4.42000008] yes=81,no=82,missing=82,gain=0.0898092091,cover=8.34000015
						81:leaf=0.00700076809,cover=2.50199986
						82:leaf=-0.00285114069,cover=5.83799982
					48:[bedrooms<3] yes=83,no=84,missing=84,gain=0.101833105,cover=63.427002
						83:leaf=0.00318806316,cover=30.3239994
						84:leaf=0.00735701621,cover=33.1030006
		6:[similarity_score<0.546999991] yes=13,no=14,missing=14,gain=8.54464531,cover=1278.31201
			13:[rating<4.65999985] yes=27,no=28,missing=28,gain=1.90330887,cover=293.091003
				27:[similarity_score<0.507000029] yes=49,no=50,missing=50,gain=0.122599602,cover=57.0890007
					49:[rating<2.5] yes=85,no=86,missing=86,gain=0.0038484931,cover=6.875
						85:leaf=0.0144748194,cover=5.44999981
						86:leaf=0.00474186614,cover=1.42499995
					50:leaf=0.0244217664,cover=50.2140007
				28:[rating<4.9000001] yes=51,no=52,missing=52,gain=0.404592514,cover=236.001999
					51:[days_until_stay<2] yes=87,no=88,missing=88,gain=0.0455971956,cover=38.8889999
						87:leaf=0.000537185755,cover=2.09699988
						88:leaf=0.00838222075,cover=36.7919998
					52:[rating<4.94000006] yes=89,no=90,missing=90,gain=0.224094391,cover=197.113007
						89:leaf=0.0163072739,cover=76.6529999
						90:leaf=0.0123183886,cover=120.459999
14:[location_city_Three Rivers] yes=29,no=30,gain=4.17960167,cover=985.220947
				29:[accommodates<15] yes=53,no=54,missing=54,gain=3.7181654,cover=954.602966
53:[location_city_Visalia] yes=91,no=92,gain=3.42469168,cover=823.141968
						91:leaf=0.00805696845,cover=274.460999
						92:leaf=0.00122145505,cover=548.680969
					54:[bedrooms<5] yes=93,no=94,missing=94,gain=3.36017418,cover=131.460999
						93:leaf=0.0394248329,cover=9.80699921
						94:leaf=0.0100730546,cover=121.653999
				30:[rating<4.98999977] yes=55,no=56,missing=56,gain=0.248007774,cover=30.6179981
					55:leaf=0.0119895041,cover=6.8039999
					56:leaf=0.0258755293,cover=23.8139992


0:[bedrooms<2] yes=1,no=2,missing=2,gain=75.9666443,cover=2270.29102
	1:[accommodates<3] yes=3,no=4,missing=4,gain=2.58843613,cover=457.853973
		3:[pool_score<0.566999972] yes=7,no=8,missing=8,gain=0.478027344,cover=282.057983
			7:[days_until_stay<14] yes=15,no=16,missing=16,gain=0.0127255172,cover=6.58400011
				15:leaf=-0.00897271652,cover=2.74099994
				16:[price_reliability_score<0.285714298] yes=31,no=32,missing=32,gain=0.00370216742,cover=3.84300017
					31:leaf=-0.00109533418,cover=2.1960001
					32:leaf=-0.00462166267,cover=1.64700007
			8:[is_weekend<1] yes=17,no=18,missing=18,gain=0.292125702,cover=275.473999
17:[location_city_Fremont] yes=33,no=34,gain=0.12279129,cover=196.32399
					33:[pool_score<0.617999971] yes=57,no=58,missing=58,gain=0.0633049011,cover=194.056
						57:leaf=-0.0237864461,cover=142.79599
						58:leaf=-0.0195908025,cover=51.2599983
					34:leaf=-0.00684319763,cover=2.26799989
				18:[days_until_stay<20] yes=35,no=36,missing=36,gain=0.171819687,cover=79.1499939
35:[location_city_Seattle] yes=59,no=60,gain=0.0577039719,cover=68.7779999
						59:leaf=-0.00699567795,cover=2.42999983
						60:leaf=-0.0194119066,cover=66.3479996
					36:[days_until_stay<25] yes=61,no=62,missing=62,gain=0.00738039613,cover=10.3719997
						61:leaf=-0.00287319487,cover=1.19199991
						62:leaf=-0.0108977081,cover=9.17999935
		4:[days_until_stay<19] yes=9,no=10,missing=10,gain=1.46393108,cover=175.79599
			9:[days_until_stay<10] yes=19,no=20,missing=20,gain=0.352459908,cover=121.315994
19:[location_city_San Francisco] yes=37,no=38,gain=0.0083489418,cover=45.3989983
					37:leaf=-0.0202303622,cover=44.2409973
					38:leaf=-0.00607456593,cover=1.15799999
20:[location_city_San Francisco] yes=39,no=40,gain=0.111118793,cover=75.9169998
					39:leaf=-0.0144792823,cover=67.0400009
					40:[price_reliability_score<0.285714298] yes=63,no=64,missing=64,gain=0.122788742,cover=8.87699986
						63:leaf=0.000988457119,cover=2.99699998
						64:leaf=-0.0108336248,cover=5.88000011
			10:[reviews<209] yes=21,no=22,missing=22,gain=0.190825164,cover=54.4799995
				21:[days_until_stay<25] yes=41,no=42,missing=42,gain=0.0805398822,cover=51.5549965
					41:leaf=-0.00721983379,cover=25.9559994
					42:[reviews<150] yes=65,no=66,missing=66,gain=0.000245720148,cover=25.598999
						65:leaf=-0.00245883665,cover=14.7419996
						66:leaf=-0.00366288214,cover=10.8569994
				22:leaf=-0.017138835,cover=2.92499995
	2:[bedrooms<4] yes=5,no=6,missing=6,gain=12.7652225,cover=1812.43701
5:[location_city_Redwood City] yes=11,no=12,gain=1.59831297,cover=528.287964
			11:[tenure_runs<10] yes=23,no=24,missing=24,gain=1.12678182,cover=416.708984
23:[location_city_Foster City] yes=43,no=44,gain=0.980374634,cover=379.707001
43:[location_city_Queen Anne] yes=67,no=68,gain=0.871306658,cover=361.184998
						67:leaf=-0.00219355151,cover=354.446991
						68:leaf=0.0147792241,cover=6.73799992
					44:[days_until_stay<11] yes=69,no=70,missing=70,gain=0.0135906935,cover=18.5219994
						69:leaf=-0.0148445964,cover=13.0339994
						70:leaf=-0.00807036459,cover=5.48799992
				24:[accommodates<2] yes=45,no=46,missing=46,gain=0.106884003,cover=37.0019989
					45:[days_until_stay<17] yes=71,no=72,missing=72,gain=0.0213274062,cover=18.2250004
						71:leaf=-0.0103683611,cover=7.40899992
						72:leaf=-0.00556270359,cover=10.816
					46:leaf=-0.0143242208,cover=18.7769985
			12:[baths<1.5] yes=25,no=26,missing=26,gain=0.100432813,cover=111.579002
				25:[pool_score<0.578999996] yes=47,no=48,missing=48,gain=0.0283139795,cover=75.5599976
					47:[days_since_first_seen<2] yes=73,no=74,missing=74,gain=0.0251413248,cover=42.2399979
						73:leaf=0.000533324608,cover=27.8309994
						74:leaf=0.00307579944,cover=14.4089994
					48:[days_since_first_seen<1] yes=75,no=76,missing=76,gain=0.00501301885,cover=33.3199997
						75:leaf=0.00401010551,cover=20.5799999
						76:leaf=0.00231612823,cover=12.7399998
				26:[bedrooms<3] yes=49,no=50,missing=50,gain=0.117850423,cover=36.019001
					49:leaf=-0.00338604557,cover=2.74399996
					50:[reviews<14] yes=77,no=78,missing=78,gain=0.0489752293,cover=33.2750015
						77:leaf=0.00736863911,cover=26.7299995
						78:leaf=0.00213239645,cover=6.54500008
		6:[pool_score<0.546999991] yes=13,no=14,missing=14,gain=7.32426834,cover=1284.14893
			13:[is_weekend<1] yes=27,no=28,missing=28,gain=0.285337448,cover=294.639008
27:[location_city_Shoreline] yes=51,no=52,gain=0.0979986191,cover=221.763
51:[location_city_Selma] yes=79,no=80,gain=0.0798158646,cover=219.854996
						79:leaf=0.0134600848,cover=216.632996
						80:leaf=0.00392362196,cover=3.22200012
					52:leaf=0.00124875491,cover=1.90799999
				28:[pool_score<0.545000017] yes=53,no=54,missing=54,gain=0.311369896,cover=72.8759995
53:[location_city_Hanford] yes=81,no=82,gain=0.134765476,cover=12.8219995
						81:leaf=0.0106337843,cover=11.7480001
						82:leaf=-0.0046082437,cover=1.074
					54:[days_until_stay<14] yes=83,no=84,missing=84,gain=0.0712413788,cover=60.0540009
						83:leaf=0.0214416739,cover=30.5710011
						84:leaf=0.0156028215,cover=29.4829998
14:[location_city_Exeter] yes=29,no=30,gain=4.39249992,cover=989.509949
29:[location_city_Visalia] yes=55,no=56,gain=4.33274174,cover=977.03595
					55:[reviews<34] yes=85,no=86,missing=86,gain=4.68305683,cover=309.385986
						85:leaf=0.0134685924,cover=253.496002
						86:leaf=-0.00247511477,cover=55.8899994
					56:[accommodates<15] yes=87,no=88,missing=88,gain=7.15066624,cover=667.649963
						87:leaf=0.000945991836,cover=543.357971
						88:leaf=0.01419874,cover=124.292
				30:leaf=-0.0230749156,cover=12.473999


0:[bedrooms<2] yes=1,no=2,missing=2,gain=67.627182,cover=2268.36792
	1:[accommodates<3] yes=3,no=4,missing=4,gain=2.61969376,cover=458.890991
		3:[rating<5] yes=7,no=8,missing=8,gain=0.53282547,cover=288.492004
			7:[rating<4.8499999] yes=15,no=16,missing=16,gain=0.273124695,cover=278.764984
				15:[days_until_stay<3] yes=31,no=32,missing=32,gain=0.330519199,cover=63.8759956
					31:leaf=-0.0249688141,cover=11.3399992
					32:[days_until_stay<27] yes=59,no=60,missing=60,gain=0.128726959,cover=52.5359993
						59:leaf=-0.0148522155,cover=51.4019966
						60:leaf=0.00119345216,cover=1.13399994
				16:[baths<1.5] yes=33,no=34,missing=34,gain=0.129405975,cover=214.888992
33:[location_city_Pike-Market] yes=61,no=62,gain=0.0983657837,cover=213.638992
						61:leaf=-0.0215768293,cover=212.396988
						62:leaf=-0.00374305248,cover=1.24199998
					34:leaf=-0.00278452388,cover=1.25
			8:[similarity_score<0.55400002] yes=17,no=18,missing=18,gain=0.0240432471,cover=9.72700024
				17:[price_reliability_score<0.285714298] yes=35,no=36,missing=36,gain=0.003494367,cover=3.84300017
					35:leaf=-0.00105770491,cover=2.1960001
					36:leaf=-0.00447788415,cover=1.64700007
18:[location_city_Belltown] yes=37,no=38,gain=0.00513900816,cover=5.88399982
					37:leaf=-0.0110377781,cover=3.61599994
					38:leaf=-0.00418648077,cover=2.26799989
		4:[days_until_stay<19] yes=9,no=10,missing=10,gain=1.32589245,cover=170.398987
			9:[days_until_stay<10] yes=19,no=20,missing=20,gain=0.272616386,cover=115.534996
				19:[reviews<156] yes=39,no=40,missing=40,gain=0.127209187,cover=41.3889999
					39:leaf=-0.0199241582,cover=35.093998
					40:[reviews<208] yes=63,no=64,missing=64,gain=0.0875197649,cover=6.29500008
						63:leaf=-0.00132688635,cover=2.48399997
						64:leaf=-0.0134830177,cover=3.81099987
20:[location_city_San Francisco] yes=41,no=42,gain=0.0663056374,cover=74.1459961
					41:[similarity_score<0.625] yes=65,no=66,missing=66,gain=0.0217518806,cover=65.8059998
						65:leaf=-0.014805913,cover=38.3659973
						66:leaf=-0.0110564819,cover=27.4399986
					42:[rating<4.92999983] yes=67,no=68,missing=68,gain=0.131742656,cover=8.34000015
						67:leaf=-0.0125197535,cover=4.10099983
						68:leaf=-0.000475166424,cover=4.23899984
			10:[price_reliability_score<0.857142866] yes=21,no=22,missing=22,gain=0.116528034,cover=54.8639984
				21:[similarity_score<0.625] yes=43,no=44,missing=44,gain=0.0142489076,cover=4.89099979
					43:leaf=-0.014120725,cover=3.51899981
					44:leaf=-0.00378579134,cover=1.37199998
				22:[days_until_stay<25] yes=45,no=46,missing=46,gain=0.0782763064,cover=49.9729996
					45:leaf=-0.00676565384,cover=21.9869995
					46:leaf=-0.00265985704,cover=27.9859982
	2:[bedrooms<4] yes=5,no=6,missing=6,gain=11.9926729,cover=1809.47693
		5:[rating<4.92999983] yes=11,no=12,missing=12,gain=1.11389589,cover=539.252991
11:[location_city_Edmonds] yes=23,no=24,gain=1.41761589,cover=345.341003
23:[location_city_San Jose] yes=47,no=48,gain=1.28768229,cover=324.928986
47:[location_city_Town Center Mountlake Terrace] yes=69,no=70,gain=1.06244588,cover=294.315002
						69:leaf=-0.00042650869,cover=252.960999
						70:leaf=-0.00898491032,cover=41.3540001
					48:[accommodates<6] yes=71,no=72,missing=72,gain=0.347135663,cover=30.6140003
						71:leaf=-0.0156729631,cover=21.4020004
						72:leaf=-0.00364895607,cover=9.21199989
				24:leaf=-0.0159958322,cover=20.4119987
			12:[is_weekend<1] yes=25,no=26,missing=26,gain=0.344502091,cover=193.912003
				25:[similarity_score<0.42899999] yes=49,no=50,missing=50,gain=0.228153735,cover=131.768997
					49:[bedrooms<3] yes=73,no=74,missing=74,gain=0.111629233,cover=3.75300002
						73:leaf=-0.00132205919,cover=1.25099993
						74:leaf=0.0151191875,cover=2.50199986
					50:[similarity_score<0.709999979] yes=75,no=76,missing=76,gain=0.268470049,cover=128.015991
						75:leaf=-0.00173234695,cover=104.495995
						76:leaf=0.00407757377,cover=23.5200005
				26:[days_until_stay<6] yes=51,no=52,missing=52,gain=0.185889214,cover=62.1429977
					51:[accommodates<2] yes=77,no=78,missing=78,gain=0.254339308,cover=14.6529999
						77:leaf=0.00285451417,cover=11.6699991
						78:leaf=-0.0116353789,cover=2.98300004
					52:[days_until_stay<23] yes=79,no=80,missing=80,gain=0.227134943,cover=47.4899979
						79:leaf=0.00737029547,cover=38.5
						80:leaf=-0.0013048345,cover=8.98999977
		6:[similarity_score<0.546999991] yes=13,no=14,missing=14,gain=6.31687355,cover=1270.224
			13:[rating<4.65999985] yes=27,no=28,missing=28,gain=1.79029846,cover=291.247009
				27:[baths<1] yes=53,no=54,missing=54,gain=0.11519146,cover=56.156002
					53:leaf=0.0220433362,cover=54.1850014
					54:leaf=0.00577841699,cover=1.97099996
				28:[rating<4.9000001] yes=55,no=56,missing=56,gain=0.345078468,cover=235.091003
					55:[rating<4.8499999] yes=81,no=82,missing=82,gain=0.0943692327,cover=39.3090019
						81:leaf=0.00747047598,cover=37.6170006
						82:leaf=-0.00313442457,cover=1.69199991
					56:[rating<4.98000002] yes=83,no=84,missing=84,gain=0.236564636,cover=195.781998
						83:leaf=0.0138708251,cover=120.774002
						84:leaf=0.00988246873,cover=75.0080032
14:[location_city_Exeter] yes=29,no=30,gain=4.44559956,cover=978.97699
				29:[price_reliability_score<0.428571433] yes=57,no=58,missing=58,gain=4.18298912,cover=964.234985
					57:[rating<4.76000023] yes=85,no=86,missing=86,gain=5.21567917,cover=141.703995
						85:leaf=0.0319379605,cover=29.2949982
						86:leaf=0.00842362642,cover=112.408997
					58:[rating<4.76000023] yes=87,no=88,missing=88,gain=6.02249146,cover=822.531006
						87:leaf=-0.00471716886,cover=153.602997
						88:leaf=0.00623729592,cover=668.927979
				30:leaf=-0.021252811,cover=14.7419996


0:[location_city_Seattle] yes=1,no=2,gain=55.9103432,cover=2313.68604
	1:[days_since_first_seen<2] yes=3,no=4,missing=4,gain=9.34266663,cover=1835.03394
		3:[baths<3] yes=7,no=8,missing=8,gain=4.03595448,cover=1007.539
			7:[pool_score<0.546999991] yes=15,no=16,missing=16,gain=2.97240448,cover=849.312988
				15:[pool_score<0.545000017] yes=31,no=32,missing=32,gain=1.89074755,cover=126.326004
					31:[rating<4.76000023] yes=59,no=60,missing=60,gain=0.970666409,cover=78.8399963
						59:leaf=0.0117804883,cover=17.3260002
						60:leaf=-0.00131265202,cover=61.5139999
					32:[rating<2.5] yes=61,no=62,missing=62,gain=0.228608608,cover=47.4860001
						61:leaf=0.0205672104,cover=12.0120001
						62:leaf=0.0116042765,cover=35.473999
16:[location_city_South Lake Tahoe] yes=33,no=34,gain=2.6898303,cover=722.987
33:[location_city_Selma] yes=63,no=64,gain=2.51225734,cover=658.810974
						63:leaf=-0.0032517456,cover=643.299011
						64:leaf=0.0165115949,cover=15.512001
					34:[rating<4.98000002] yes=65,no=66,missing=66,gain=0.257850289,cover=64.1759949
						65:leaf=0.00616103038,cover=52.2689972
						66:leaf=0.0144038051,cover=11.9069996
			8:[price_reliability_score<1] yes=17,no=18,missing=18,gain=1.09756947,cover=158.225998
17:[location_city_Renton] yes=35,no=36,gain=1.30041027,cover=65.6849976
					35:[reviews<191] yes=67,no=68,missing=68,gain=1.28224277,cover=63.4169998
						67:leaf=0.0166589394,cover=57.6269989
						68:leaf=-0.00701475609,cover=5.78999996
					36:leaf=-0.0187278353,cover=2.26799989
				18:[reviews<21] yes=37,no=38,missing=38,gain=3.50191331,cover=92.5410004
					37:[rating<4.75] yes=69,no=70,missing=70,gain=0.114042878,cover=27.9719982
						69:leaf=-0.0052478197,cover=10.7729998
						70:leaf=-0.0125597883,cover=17.1989994
					38:[reviews<56] yes=71,no=72,missing=72,gain=0.119037628,cover=64.5690002
						71:leaf=0.0160929002,cover=10.7729998
						72:leaf=0.00955606345,cover=53.7960014
		4:[pool_score<0.555000007] yes=9,no=10,missing=10,gain=3.16683769,cover=827.494995
			9:[rating<4.65999985] yes=19,no=20,missing=20,gain=1.08745575,cover=283.460999
				19:[pool_score<0.546999991] yes=39,no=40,missing=40,gain=0.176808357,cover=40.0110016
					39:[pool_score<0.504000008] yes=73,no=74,missing=74,gain=0.0303964615,cover=38.3660011
						73:leaf=0.00730243558,cover=1.78399992
						74:leaf=0.021064166,cover=36.5820007
					40:leaf=0.00232083607,cover=1.64499998
				20:[rating<4.9000001] yes=41,no=42,missing=42,gain=0.703724861,cover=243.449997
					41:[pool_score<0.546999991] yes=75,no=76,missing=76,gain=0.552915215,cover=34.9210014
						75:leaf=0.00661662314,cover=30.5370007
						76:leaf=-0.0108269481,cover=4.38399982
					42:[rating<4.98000002] yes=77,no=78,missing=78,gain=0.300891876,cover=208.529007
						77:leaf=0.0133554703,cover=143.098007
						78:leaf=0.00891678594,cover=65.4309998
			10:[reviews<30] yes=21,no=22,missing=22,gain=3.77095413,cover=544.033997
				21:[reviews<15] yes=43,no=44,missing=44,gain=3.62627721,cover=259.916992
					43:[reviews<7] yes=79,no=80,missing=80,gain=2.14981198,cover=172.546997
						79:leaf=0.00379769201,cover=158.317993
						80:leaf=0.0235170238,cover=14.2289991
					44:[is_weekend<1] yes=81,no=82,missing=82,gain=0.608962774,cover=87.3699951
						81:leaf=-0.00888068601,cover=70.9269943
						82:leaf=0.00169252441,cover=16.4429989
				22:[reviews<58] yes=45,no=46,missing=46,gain=3.21617985,cover=284.117004
					45:[rating<4.73000002] yes=83,no=84,missing=84,gain=0.71716404,cover=83.0819931
						83:leaf=0.0313009322,cover=9.07199955
						84:leaf=0.0158849265,cover=74.0099945
					46:[baths<2.5] yes=85,no=86,missing=86,gain=1.64604974,cover=201.035004
						85:leaf=-0.00472195307,cover=28.7909985
						86:leaf=0.00806080736,cover=172.244003
	2:[baths<1.5] yes=5,no=6,missing=6,gain=1.43564606,cover=478.651978
		5:[days_until_stay<18] yes=11,no=12,missing=12,gain=1.74731827,cover=448.630981
			11:[pool_score<0.547999978] yes=23,no=24,missing=24,gain=0.771743774,cover=322.852997
				23:[pool_score<0.545000017] yes=47,no=48,missing=48,gain=0.0981489047,cover=7.63800001
					47:leaf=0.00803782698,cover=1.074
					48:[days_until_stay<6] yes=87,no=88,missing=88,gain=0.0120293461,cover=6.56400013
						87:leaf=-0.00646301964,cover=2.7349999
						88:leaf=-0.001762614,cover=3.829
				24:[pool_score<0.652999997] yes=49,no=50,missing=50,gain=0.549022675,cover=315.214996
					49:[rating<4.88000011] yes=89,no=90,missing=90,gain=0.410758972,cover=287.873993
						89:leaf=-0.0162372384,cover=121.121994
						90:leaf=-0.0206583682,cover=166.751999
					50:leaf=-0.0107389679,cover=27.3409996
			12:[reviews<32] yes=25,no=26,missing=26,gain=0.472203732,cover=125.777992
				25:[pool_score<0.549000025] yes=51,no=52,missing=52,gain=0.558168411,cover=55.1459961
					51:[pool_score<0.547999978] yes=91,no=92,missing=92,gain=0.0387155861,cover=7.11299992
						91:leaf=-0.00265477621,cover=6.01699972
						92:leaf=0.0051229652,cover=1.09599996
